tree
version=v4
num_class=1
num_tree_per_iteration=1
label_index=0
max_feature_idx=299
objective=regression
feature_names=Column_0 Column_1 Column_2 Column_3 Column_4 Column_5 Column_6 Column_7 Column_8 Column_9 Column_10 Column_11 Column_12 Column_13 Column_14 Column_15 Column_16 Column_17 Column_18 Column_19 Column_20 Column_21 Column_22 Column_23 Column_24 Column_25 Column_26 Column_27 Column_28 Column_29 Column_30 Column_31 Column_32 Column_33 Column_34 Column_35 Column_36 Column_37 Column_38 Column_39 Column_40 Column_41 Column_42 Column_43 Column_44 Column_45 Column_46 Column_47 Column_48 Column_49 Column_50 Column_51 Column_52 Column_53 Column_54 Column_55 Column_56 Column_57 Column_58 Column_59 Column_60 Column_61 Column_62 Column_63 Column_64 Column_65 Column_66 Column_67 Column_68 Column_69 Column_70 Column_71 Column_72 Column_73 Column_74 Column_75 Column_76 Column_77 Column_78 Column_79 Column_80 Column_81 Column_82 Column_83 Column_84 Column_85 Column_86 Column_87 Column_88 Column_89 Column_90 Column_91 Column_92 Column_93 Column_94 Column_95 Column_96 Column_97 Column_98 Column_99 Column_100 Column_101 Column_102 Column_103 Column_104 Column_105 Column_106 Column_107 Column_108 Column_109 Column_110 Column_111 Column_112 Column_113 Column_114 Column_115 Column_116 Column_117 Column_118 Column_119 Column_120 Column_121 Column_122 Column_123 Column_124 Column_125 Column_126 Column_127 Column_128 Column_129 Column_130 Column_131 Column_132 Column_133 Column_134 Column_135 Column_136 Column_137 Column_138 Column_139 Column_140 Column_141 Column_142 Column_143 Column_144 Column_145 Column_146 Column_147 Column_148 Column_149 Column_150 Column_151 Column_152 Column_153 Column_154 Column_155 Column_156 Column_157 Column_158 Column_159 Column_160 Column_161 Column_162 Column_163 Column_164 Column_165 Column_166 Column_167 Column_168 Column_169 Column_170 Column_171 Column_172 Column_173 Column_174 Column_175 Column_176 Column_177 Column_178 Column_179 Column_180 Column_181 Column_182 Column_183 Column_184 Column_185 Column_186 Column_187 Column_188 Column_189 Column_190 Column_191 Column_192 Column_193 Column_194 Column_195 Column_196 Column_197 Column_198 Column_199 Column_200 Column_201 Column_202 Column_203 Column_204 Column_205 Column_206 Column_207 Column_208 Column_209 Column_210 Column_211 Column_212 Column_213 Column_214 Column_215 Column_216 Column_217 Column_218 Column_219 Column_220 Column_221 Column_222 Column_223 Column_224 Column_225 Column_226 Column_227 Column_228 Column_229 Column_230 Column_231 Column_232 Column_233 Column_234 Column_235 Column_236 Column_237 Column_238 Column_239 Column_240 Column_241 Column_242 Column_243 Column_244 Column_245 Column_246 Column_247 Column_248 Column_249 Column_250 Column_251 Column_252 Column_253 Column_254 Column_255 Column_256 Column_257 Column_258 Column_259 Column_260 Column_261 Column_262 Column_263 Column_264 Column_265 Column_266 Column_267 Column_268 Column_269 Column_270 Column_271 Column_272 Column_273 Column_274 Column_275 Column_276 Column_277 Column_278 Column_279 Column_280 Column_281 Column_282 Column_283 Column_284 Column_285 Column_286 Column_287 Column_288 Column_289 Column_290 Column_291 Column_292 Column_293 Column_294 Column_295 Column_296 Column_297 Column_298 Column_299
feature_infos=[-0.79511058330535889:6.3809428215026855] [-0.79146677255630493:6.357689380645752] [-0.79723638296127319:6.3662400245666504] [-0.79268735647201538:6.4106292724609375] [-0.54890483617782593:7.5113487243652344] [-4.1743898391723633:5.5088005065917969] [-3.9845409393310547:5.642829418182373] [-3.4007148742675781:5.6157097816467285] [-0.80159968137741089:6.346290111541748] [-0.78794831037521362:6.2822914123535156] [-3.315692663192749:3.7264432907104492] [-0.67722475528717041:7.0178055763244629] [-3.9849679470062256:5.6437873840332031] [-3.3995070457458496:5.6230325698852539] [-2.7955112457275391:5.6855096817016602] [-0.40137279033660889:8.7994298934936523] [-0.41912448406219482:8.8411865234375] [-8.2003097534179688:8.1265182495117188] [-9.1052541732788086:9.1669025421142578] [-7.9319677352905273:8.6270380020141602] [-0.53535944223403931:7.5330309867858887] [-0.54946643114089966:7.7715139389038086] [-0.35685926675796509:8.2011327743530273] [-0.37225005030632019:8.1658849716186523] [-0.65156769752502441:6.4786787033081055] [-0.39816901087760925:7.89923095703125] none [-4.8900976181030273:4.1375293731689453] [-4.1739864349365234:3.7939281463623047] [-3.6760900020599365:3.4371957778930664] [-2.3374762535095215:4.36468505859375] [-5.5600862503051758:0.87263047695159912] [-7.6333527565002441:8.8204803466796875] [-0.47667089104652405:8.1508073806762695] [-0.69299501180648804:4.3458695411682129] [-0.7286725640296936:8.1139335632324219] [-1.102311372756958:6.4754319190979004] [-3.375049352645874:9.3867092132568359] [-1.8767592906951904:9.0778427124023438] [-3.3872864246368408:5.4898004531860352] [-9.8011713027954102:8.9124345779418945] [-0.0048524253070354462:0.018678845837712288] [-14.901161193847656:0] [-7.0150556564331055:3.0879676342010498] none [-1.1303815841674805:4.2195839881896973] [-5.0343585014343262:7.6874604225158691] [-3:3] [-3:3] [-1.5074818134307861:3] [-3:3] [-3:3] [-3:3] [-3:1.2963624000549316] [-2.5610260963439941:3] [-3:3] [-2.3497121334075928:1.9842877388000488] [-2.1855719089508057:2.6655728816986084] [-3:0.087988629937171936] [-0.79078960418701172:6.355710506439209] [-0.78692615032196045:6.3303065299987793] [-0.79685288667678833:6.385836124420166] [-0.79224896430969238:6.3732624053955078] [-0.56918716430664062:7.7640233039855957] [-4.5833621025085449:5.3112573623657227] [-3.8916587829589844:5.4381799697875977] [-3.3994331359863281:5.5205826759338379] [-0.78676062822341919:6.344031810760498] [-0.80275386571884155:6.2777628898620605] [-3.1310350894927979:3.4200551509857178] [-0.67708337306976318:7.1279988288879395] [-3.8936588764190674:5.4395484924316406] [-3.4015581607818604:5.522587776184082] [-2.8236305713653564:5.607994556427002] [-0.39889281988143921:8.7351894378662109] [-0.41912448406219482:8.8591928482055664] [-8.1525726318359375:8.2503328323364258] [-8.5545454025268555:9.0965976715087891] [-8.5241870880126953:8.402587890625] [-0.53535944223403931:7.5138025283813477] [-0.54946643114089966:7.5683627128601074] [-0.35951411724090576:8.2067985534667969] [-0.37225005030632019:8.1414327621459961] [-0.65277731418609619:6.4833931922912598] [-0.39306783676147461:7.8796567916870117] none [-4.227653980255127:4.1375293731689453] [-4.2409043312072754:3.7790651321411133] [-3.8268082141876221:3.4338893890380859] [-2.3500070571899414:4.335655689239502] [-5.5537657737731934:0.86806857585906982] [-7.8442707061767578:9.3305273056030273] [-0.50190424919128418:8.1936874389648438] [-0.73228788375854492:4.3501081466674805] [-0.72101056575775146:8.1159133911132812] [-1.1029514074325562:6.4556465148925781] [-3.3664417266845703:9.3968944549560547] [-1.9581174850463867:9.069610595703125] [-3.3497533798217773:5.4819636344909668] [-9.7426748275756836:9.6714878082275391] [-0.0048524253070354462:0.018505971878767014] [-2.6442224979400635:0] [-7.0261588096618652:3.1052227020263672] none [-1.1297247409820557:4.2049856185913086] [-5.1083569526672363:7.8049907684326172] [-3:3] [-3:3] [-1.5105994939804077:3] [-3:3] [-3:3] [-3:3] [-3:1.3250035047531128] [-2.5979385375976562:3] [-3:3] [-2.4484379291534424:2.1115059852600098] [-2.1983246803283691:2.6729152202606201] [-3:0.087988629937171936] [-0.79078960418701172:6.355710506439209] [-0.78692615032196045:6.3303065299987793] [-0.79685288667678833:6.385836124420166] [-0.79224896430969238:6.3732624053955078] [-0.56915706396102905:7.7640233039855957] [-4.1743898391723633:5.3112573623657227] [-3.8916587829589844:5.4381799697875977] [-3.3994331359863281:5.5205826759338379] [-0.79021477699279785:6.3537812232971191] [-0.80275386571884155:6.2912216186523438] [-3.1262855529785156:3.2951128482818604] [-0.68628615140914917:7.1279988288879395] [-3.8936588764190674:5.4395484924316406] [-3.4015581607818604:5.522587776184082] [-2.8236305713653564:5.6344008445739746] [-0.40137279033660889:8.7351894378662109] [-0.41912448406219482:8.401066780090332] [-8.1525726318359375:8.2503328323364258] [-9.3152475357055664:9.0965976715087891] [-8.5241870880126953:8.402587890625] [-0.53120332956314087:7.5138025283813477] [-0.54837554693222046:7.6795358657836914] [-0.35951411724090576:8.2067985534667969] [-0.37225005030632019:8.1414327621459961] [-0.65277731418609619:6.4722561836242676] [-0.39816901087760925:7.8169207572937012] none [-4.3444433212280273:3.9842972755432129] [-4.2422909736633301:3.7790651321411133] [-3.8268082141876221:3.5433690547943115] [-2.3211910724639893:4.3764276504516602] [-5.6981344223022461:0.86857956647872925] [-7.8442707061767578:9.0465507507324219] [-0.50190424919128418:8.1936874389648438] [-0.73228788375854492:4.3449282646179199] [-0.7286725640296936:8.1159133911132812] [-1.1016603708267212:6.6041932106018066] [-3.3664417266845703:9.3968944549560547] [-1.9581174850463867:9.069610595703125] [-3.3872864246368408:5.4819636344909668] [-9.7426748275756836:9.8011798858642578] [-0.0048524253070354462:0.018678845837712288] [-14.901161193847656:0] [-7.0261588096618652:3.0849313735961914] none [-1.1303815841674805:4.2049856185913086] [-5.1083569526672363:7.8049907684326172] [-3:3] [-3:3] [-1.5105994939804077:3] [-3:3] [-3:3] [-3:3] [-3:1.3250035047531128] [-2.5979385375976562:3] [-3:3] [-2.4484379291534424:2.1115059852600098] [-2.3216390609741211:2.6729152202606201] [-3:0.087988629937171936] [-0.79078960418701172:6.3809428215026855] [-0.78987467288970947:6.357689380645752] [-0.79723638296127319:6.3662400245666504] [-0.79268735647201538:6.4106292724609375] [-0.56978905200958252:7.5859575271606445] [-4.1743898391723633:5.5088005065917969] [-3.9845409393310547:5.392341136932373] [-3.4007148742675781:5.6157097816467285] [-0.78367477655410767:6.346290111541748] [-0.78794831037521362:6.2911958694458008] [-3.143902063369751:3.7264432907104492] [-0.67722475528717041:6.7808141708374023] [-3.9849679470062256:5.3964333534240723] [-3.3995070457458496:5.6230325698852539] [-2.8397276401519775:5.6855096817016602] [-0.40137279033660889:9.073272705078125] [-0.41912448406219482:8.7559843063354492] [-8.2003097534179688:8.1265182495117188] [-9.33282470703125:9.1669025421142578] [-8.2529888153076172:8.6270380020141602] [-0.53535944223403931:7.5330309867858887] [-0.54946643114089966:7.8096365928649902] [-0.35951411724090576:8.2011327743530273] [-0.37225005030632019:8.1658849716186523] [-0.65277731418609619:6.4786787033081055] [-0.39816901087760925:7.89923095703125] none [-4.023709774017334:4.142737865447998] [-4.1856398582458496:3.7939281463623047] [-3.6760900020599365:3.4371957778930664] [-2.3282418251037598:4.36468505859375] [-5.6981344223022461:0.86857956647872925] [-7.6333527565002441:8.8204803466796875] [-0.50190424919128418:8.1962461471557617] [-0.72719347476959229:4.3456525802612305] [-0.7286725640296936:8.1139335632324219] [-1.1120543479919434:6.4566431045532227] [-3.3584685325622559:9.3867092132568359] [-1.8767592906951904:9.0798912048339844] [-3.4087297916412354:5.4898004531860352] [-9.8011713027954102:9.4220962524414062] [-0.0048524253070354462:0.018678845837712288] [-14.901161193847656:0] [-7.0150556564331055:3.118762731552124] none [-1.1303815841674805:4.2195839881896973] [-5.0343585014343262:7.6855573654174805] [-3:3] [-3:3] [-1.5105994939804077:3] [-3:3] [-3:3] [-3:3] [-3:1.3250035047531128] [-2.5979385375976562:3] [-3:3] [-2.7968058586120605:2.1115059852600098] [-2.7555224895477295:2.6729152202606201] [-3:0.087988629937171936] [-0.78267037868499756:6.357184886932373] [-0.77727979421615601:6.2971200942993164] [-0.77259939908981323:6.2199559211730957] [-0.54120755195617676:7.1908998489379883] [-0.52741461992263794:7.0041651725769043] [-0.50283700227737427:6.8908729553222656] [-2.9956686496734619:4.6255497932434082] [-2.4067757129669189:3.0934216976165771] [-1.0313018560409546:1.7171704769134521] [-7.7065715789794922:7.6263213157653809] [-6.2932119369506836:6.4906010627746582] [-4.7864227294921875:5.0770363807678223] [-7.1865530014038086:8.5135507583618164] [-5.4885120391845703:7.7378950119018555] [-4.1594700813293457:6.0624666213989258] [-7.3817648887634277:7.5183625221252441] [-6.1691679954528809:5.8939428329467773] [-4.8145956993103027:4.9425477981567383] [-0.65125441551208496:6.4690794944763184] [-0.64411616325378418:6.4388909339904785] [-0.6385188102722168:6.358147144317627] [-0.39180952310562134:7.7492680549621582] [-0.38509184122085571:7.4606285095214844] [-0.3775973916053772:7.1554522514343262] [-3.6841380596160889:3.2504580020904541] [-3.5848124027252197:2.7204396724700928] [-2.5210094451904297:2.109525203704834] [-3.1930856704711914:3.3871176242828369] [-2.7733132839202881:3.0872690677642822] [-2.3641188144683838:2.7518048286437988] [-2.3294394016265869:4.3123407363891602] [-2.2494344711303711:4.1701464653015137] [-1.8545737266540527:3.9418888092041016] [-0.69106841087341309:4.3406343460083008] [-0.6859326958656311:4.3212337493896484] [-0.68497234582901001:4.3019084930419922] [0.0013512065634131432:1.7177780866622925] [0.0028743012808263302:2.286085844039917] [0.007152424193918705:3.1445491313934326] [0.011261432431638241:3.1671769618988037] [0.11991922557353973:3.7910623550415039] [0.14718620479106903:3.2124178409576416] [0.028216894716024399:6.9015412330627441] [0.066454432904720306:6.5178351402282715] [0.018989376723766327:7.3995194435119629] [0.035177413374185562:6.2859501838684082] [0.034492548555135727:6.9676032066345215] [0.060100745409727097:6.6988186836242676] [0.00095512380357831717:3.0390596389770508] [0.0021098763681948185:3.224698543548584] [0.001494272262789309:3.6875581741333008] [0.0031198838260024786:3.6826944351196289] [0.02416016161441803:2.5134739875793457] [0.079858273267745972:2.3758919239044189] [0.060152776539325714:2.5034537315368652] [0.15967912971973419:2.4655323028564453] [0.0063019599765539169:2.5663411617279053] [0.016527796164155006:2.3877131938934326] [0:2.2400448322296143] [0:2.2457687854766846] [-3.9845409393310547:5.642829418182373] [-3.5772266387939453:5.4569106101989746] [-3.4007148742675781:5.6157097816467285] [-2.7866666316986084:5.6700630187988281]
tree_sizes=12750 12750 12739 12793 12767 12762 12808 12753 12788 12772 12818 12788 12769 12799 12785 12775 12731 12738 12762 12784 12765 12800 12757 12842 12760 12785 12838 12760 12794 12828 12780 12808 12778 12847 12822 12841 12801 12794 12833 12814 12772 12826 12760 12827 12799 12832 12826 12774 12787 12820 12745 12820 12784 12806 12787 12827 12831 12755 12781 12814 12742 12788 12784 12828 12802 12783 12812 12772 12799 12794 12788 12816 12804 12793 12832 12774 12825 12771 12804 12783 12791 12792 12818 12808 12843 12789 12836 12779 12791 12832 12834 12813 12819 12867 12765 12850 12829 12744 12859 12788 12827 12837 12846 12858 12879 12775 12810

Tree=0
num_leaves=127
num_cat=0
split_feature=276 296 276 18 5 5 39 39 3 39 10 265 64 11 11 15 39 296 265 53 226 276 265 265 11 109 39 173 5 18 5 277 39 11 12 24 11 18 11 18 48 175 5 64 299 158 10 145 69 7 275 12 296 64 106 49 52 115 165 160 56 240 64 40 224 40 146 5 5 5 22 53 95 64 5 114 169 45 40 18 296 226 175 64 267 273 11 39 117 145 171 158 278 98 273 263 69 10 17 188 28 160 233 186 226 296 296 271 11 265 234 233 5 50 50 112 39 12 254 17 175 299 117 287 268 66
split_gain=585.981 289.904 122.244 112.191 86.691 74.7299 63.0916 48.886 50.8405 37.5717 36.9291 33.906 27.7432 24.3845 24.3231 28.3021 22.7246 22.1298 21.9885 21.3724 20.398 19.2195 19.1703 18.1287 21.3065 17.3913 16.5315 16.3899 16.1798 14.3782 13.9148 13.2633 13.2083 12.8911 12.4548 12.2828 12.1693 11.7346 11.5191 11.2303 11.2278 10.8323 10.6954 14.6709 10.0914 10.0385 10.0045 9.98053 9.76811 9.37301 9.34756 9.31599 9.27502 9.24811 8.60107 9.70128 8.4484 9.67764 10.5656 8.33453 8.1188 8.01449 7.80585 7.80541 7.76296 7.74481 7.66811 7.26661 7.25922 7.19489 7.10351 6.96347 6.96283 6.94357 8.4644 6.90032 6.88564 6.77211 6.76404 6.71598 6.63779 6.62071 6.5655 6.53802 6.513 6.43776 6.27408 6.14972 6.09941 6.08473 6.03275 6.00369 5.98508 5.97396 6.03787 5.90433 5.88907 5.78272 5.62104 5.41559 5.41444 5.36398 5.35394 5.31284 5.30064 5.29625 5.29135 5.12742 5.1194 5.10254 5.05527 4.97736 4.94716 4.93897 5.47335 4.88583 4.74362 4.72365 4.71029 4.63945 4.52719 4.52961 4.49249 5.56579 5.13808 4.44997
threshold=0.79752749204635631 0.33604653179645544 0.4534419476985932 0.26633507013320928 0.64763185381889354 0.47113260626792913 -0.26248240470886225 -0.3719478696584701 -0.43329185247421259 -0.60408237576484669 -0.15412972867488858 -0.048270599916577332 0.72792178392410289 -0.41364023089408869 -0.20296117663383481 -0.23219718039035794 -0.22342006862163541 0.13445981591939929 0.45635761320590978 -0.17039067298173902 1.3852077722549441 1.4895112514495852 -0.16979008913040158 0.74948927760124218 -0.32229608297348017 0.76164400577545177 -0.085045550018548952 1.0693520903587344 -0.98033997416496266 0.26633507013320928 1.0423485040664675 0.42272594571113592 -0.24371810257434842 -0.43194937705993647 -0.84463331103324879 0.50143209099769603 -0.10315367206931113 0.1368990242481232 -0.36075827479362482 0.1368990242481232 0.98985093832016002 -1.6719965338706968 3.2657096385955815 1.7644330859184267 -1.3029297590255735 1.0000000180025095e-35 -0.30838626623153681 0.34217967092990881 0.55472591519355785 -1.5971760153770445 0.063406836241483702 -0.025805504061281678 -0.62643241882324208 1.2181516289711001 -0.23578681051731107 -0.54043683409690846 0.32939060032367712 -1.2359198331832884 -0.04454474709928035 -0.010088052134960888 0.16595342010259631 -0.25594218075275416 1.0558459162712099 1.0000000180025095e-35 0.44073650240898138 -1.0000000180025095e-35 -0.71970841288566578 0.81024655699729931 1.2087010741233828 3.2657096385955815 -0.31536158919334406 -1.1160326004028318 -0.56968951225280751 1.7644330859184267 1.0423485040664675 -0.40823252499103541 -0.026889135129749771 -0.75861907005310047 -1.0000000180025095e-35 0.11986690014600755 1.8296105861663821 0.64933991432189953 -0.21408906579017636 1.2181516289711001 1.8495584130287173 0.21539417654275897 -0.13081499934196469 0.030411913059651855 0.078376922756433501 -0.89249238371849049 0.20165278762578967 -1.0000000180025095e-35 0.13550473749637607 -0.22323596477508542 0.016831435263156894 0.520256668329239 -0.87798216938972462 1.8270930051803591 0.03064210340380669 0.04072809778153897 -0.57755720615386952 -0.028307745233178135 -0.31740386784076685 -0.07227024063467978 -0.088536735624074922 0.13445981591939929 1.5164913535118105 -0.28491894900798792 -0.44045653939247126 -0.2720531672239303 -0.59358435869216908 -1.2673339843749998 0.72319149971008312 -0.43442918360233301 -0.9739377200603484 -0.97448524832725514 -0.02998660039156675 -1.1147982478141782 0.50102680921554577 0.21354757249355319 -0.28126156330108637 0.058392914012074477 0.075882721692323699 0.017397440969944004 -1.0288326144218443 -1.1151958703994749
decision_type=2 2 2 2 2 2 2 2 2 2 2 2 2 2 2 2 2 2 2 2 2 2 2 2 2 2 2 2 2 2 2 2 2 2 2 2 2 2 2 2 2 2 2 2 2 2 2 2 2 2 2 2 2 2 2 2 2 2 2 2 2 2 2 2 2 2 2 2 2 2 2 2 2 2 2 2 2 2 2 2 2 2 2 2 2 2 2 2 2 2 2 2 2 2 2 2 2 2 2 2 2 2 2 2 2 2 2 2 2 2 2 2 2 2 2 2 2 2 2 2 2 2 2 2 2 2
left_child=2 4 11 6 7 9 23 8 10 38 28 17 13 32 52 41 44 33 29 27 25 22 53 24 46 54 86 40 50 30 89 45 51 70 49 42 -36 47 105 111 76 -16 43 80 -6 63 -3 82 -44 -10 -2 92 -9 102 87 -56 57 -27 60 -29 -59 109 110 65 -60 -13 107 83 -46 119 -1 -67 125 74 106 -73 81 -54 -33 -63 112 104 -28 -24 -25 -5 -15 -21 -78 -7 -57 -77 120 108 -95 -32 -72 -76 -14 -84 -19 -45 -8 -51 -17 -4 -48 -23 -80 -43 -12 -18 -26 114 -92 -113 -79 -70 -119 -68 121 -11 124 -124 -34 -30
right_child=1 3 5 85 16 18 21 14 34 12 62 31 98 26 15 19 39 100 -20 20 -22 66 67 84 35 56 37 59 72 -31 95 78 122 -35 36 -37 -38 -39 -40 -41 -42 61 48 101 68 -47 73 -49 -50 103 -52 -53 77 -55 55 90 -58 58 64 -61 -62 79 -64 -65 -66 71 69 -69 117 -71 96 75 -74 -75 97 91 88 116 93 -81 -82 -83 99 -85 -86 -87 -88 -89 -90 -91 113 -93 -94 94 -96 -97 -98 -99 -100 -101 -102 -103 -104 -105 -106 -107 -108 -109 -110 -111 -112 115 -114 -115 -116 -117 -118 118 -120 -121 -122 -123 123 -125 -126 -127
leaf_value=-0.00045723137514549952 0.00293672922574633 -0.00065832698127522523 0.00034364792427226965 0.00094178521722074432 -0.00057112784258954755 -0.0016458554883805 -0.0010463707224863564 0.0015303743384178599 0.00083702985004995348 0.0014964739333347811 -0.0016348688205060043 0.00024445063720043787 -0.00073760564479376722 0.00016918478598708562 0.0018475789019929908 0.00038752874964629935 0.00020052848049262478 -0.0010509041967895968 0.00069514243915318815 0.00070940513941637599 0.0053495780446499459 -0.0061129155375158608 -0.00024653124340288674 -0.00088992665121720091 -0.0031273996993417515 0.0030792630168176294 0.00083636611474848031 -0.0013258225029141601 0.0023973579266654554 0.0014510995134812089 -0.0025344806414525304 -0.00052608300734647857 -0.00088819577875682827 0.0006198897167381289 -0.0010364471374451501 -0.0023203736580963584 -0.0023892162391433601 0.0023090436923223975 -0.0011475797217077031 0.0011295129391352598 0.0030365424493596286 -0.00096270391039440014 -0.0039799934952277106 -0.0040566285607809048 -0.0022133118780324735 -7.8769933994280833e-05 -0.0016898109721226787 0.001264590032350621 -0.00056128706017838641 -0.00049264560682746631 0.00066998989302539372 0.00030627617963481762 -0.00021508610039527886 -0.0038773134787084039 0.00030955096601774444 0.0038137435064423291 -0.0034329523340317866 -0.0038113417000236508 -0.00035318877576373547 -0.0051579862259880909 -0.00029691938141482429 -0.0015164734437051904 -0.0029655712163935309 0.0002905618466677016 0.0029619124459111766 0.0048568909623764398 -0.0029631247910179249 -0.0016002204683468054 -0.0018080760315635511 -0.00038994981202086012 0.001184688575643494 0.0014038922382937737 -0.00010765024995693742 -0.0039839200192632379 -0.0039808950222405071 0.0005801756392304232 -0.0035599732642882667 0.00048941489444670797 0.0013886962026863215 0.0011009594234515463 -0.0049975389637430655 -0.0015206599762996153 0.00046426698947409718 -0.0015303586502859342 -0.0031359613618755534 -0.0010021644148360078 -0.0010340414359231958 0.0029193512114253314 -0.00057301866429527093 -0.00053229116089322263 0.00030222783924575521 0.0029016722538707106 0.00069315447934229467 0.0024020692461651544 0.0014303727366173429 -0.00075082807783624715 0.0019752603493031853 -0.0013016128023197223 0.00036436314323360459 -0.00062000148998821115 0.00034506665215008013 -0.0062511842478247025 -0.0025065409579303282 -0.0017621523930061041 0.0035757442893608123 -0.00080105866245098502 -0.0034729284750156034 -0.0031999255618608675 -0.0002894859278280946 1.1930071444919069e-05 -0.00039107873778304424 -0.0035854712557846433 -0.0043990602988232515 -0.00073695097997134181 0.0036023277521406252 -0.0012923687902171687 0.0014183566099840595 -0.0043651318072776141 -0.0017541418887329133 -0.001106699020147458 0.0021482085536231048 -0.00022952926326407671 0.002398668788492285 0.0015395891912395132 0.0014251985681481099 0.00068145051066407505
leaf_weight=3939 11873 6167 43942 28512 5651 16257 10915 43023 8147 19268 12125 3301 30584 56104 4413 3255 5116 8468 22015 4231 2712 2298 39397 11598 23616 2215 47361 3418 4801 5422 21366 3679 2863 44872 30065 11649 37195 12830 28701 5830 2789 20875 4544 3753 21000 3887 23148 55687 3868 18628 7373 36431 18696 7547 20636 3646 2004 3094 5234 2426 3504 30653 4670 3764 2664 3626 19887 25340 3020 4134 35764 10210 31025 9848 11565 2913 2276 32416 29249 2663 10066 2331 27051 13252 4472 5006 13426 12306 6855 49985 2240 63651 26941 33840 30315 5928 69045 2440 18615 20052 38627 10881 14783 14781 2174 13121 5073 4422 5380 37645 25040 2538 11327 2080 2861 27350 23858 11998 2020 4053 22072 4735 34989 40906 14827 17733
leaf_count=3939 11873 6167 43942 28512 5651 16257 10915 43023 8147 19268 12125 3301 30584 56104 4413 3255 5116 8468 22015 4231 2712 2298 39397 11598 23616 2215 47361 3418 4801 5422 21366 3679 2863 44872 30065 11649 37195 12830 28701 5830 2789 20875 4544 3753 21000 3887 23148 55687 3868 18628 7373 36431 18696 7547 20636 3646 2004 3094 5234 2426 3504 30653 4670 3764 2664 3626 19887 25340 3020 4134 35764 10210 31025 9848 11565 2913 2276 32416 29249 2663 10066 2331 27051 13252 4472 5006 13426 12306 6855 49985 2240 63651 26941 33840 30315 5928 69045 2440 18615 20052 38627 10881 14783 14781 2174 13121 5073 4422 5380 37645 25040 2538 11327 2080 2861 27350 23858 11998 2020 4053 22072 4735 34989 40906 14827 17733
internal_value=1.94601e-06 -0.000904477 0.000795463 -0.00209211 -0.000262598 0.000394763 -0.00239859 -2.65375e-05 -0.000589993 0.000634118 0.000144788 0.00149775 0.000804792 0.000931924 0.000380676 3.22985e-05 -0.00175019 0.00104226 -0.000734024 0.000644764 0.0010996 -0.00165397 -0.00133313 -0.00310459 -0.00328974 0.000926756 0.00058232 -0.000592411 0.000825045 -0.00105197 -0.00119708 0.00196945 0.00133228 0.00133295 -0.00136409 -0.00382096 -0.00178456 0.000857691 -0.000330536 -0.000902138 9.80711e-05 -0.000571907 -0.00407778 -0.0043132 -0.00254279 0.00240752 -0.00256271 0.000733663 -0.00240826 -0.000683531 0.00206844 0.000959352 0.000945195 -0.00233847 0.00143083 0.00094554 -0.000366086 1.87861e-06 -0.000468528 -0.00291727 -0.00194527 -0.00068819 -0.00103905 0.00251801 0.00076523 0.00261817 -0.00267959 -0.00090455 -0.00283568 -0.00231628 0.00162717 0.00271562 0.000378211 -0.00278823 -0.00250928 0.00261443 -0.000387273 0.000609362 0.00157887 -0.00130723 -0.00386586 0.000707751 0.000420668 -0.0005697 -0.00151512 0.00065143 -6.31655e-05 0.00235401 -0.00131786 -0.000805601 0.00215758 0.00280009 0.00128519 0.00165727 0.00194295 -0.00214713 0.00170551 -0.00351423 -0.000320664 2.68471e-06 9.40447e-05 -0.00568869 -0.00188641 -0.00105434 0.00166465 8.0426e-05 -0.00201046 -0.00419683 0.00112797 -0.000335748 -0.000796896 -0.00124054 -0.00353973 0.00131629 0.0021535 -0.00148721 0.000883268 -0.00360259 -0.00398904 -0.00264889 0.00163135 0.001156 0.00176841 0.00193567 0.00105076 0.00104712
internal_weight=2.03674e+06 950733 1.08601e+06 333561 617172 691479 300043 532649 223456 570506 114640 394530 484742 435543 309193 191200 84523 200715 120973 94951 69427 146028 111234 154015 137945 66715 232511 25524 72805 98958 93536 193815 203032 153620 108816 79704 67260 162981 85764 40834 19680 96249 68055 59643 43689 91352 58241 150151 8412 41556 19246 109447 117993 33245 48000 31463 18715 16711 14496 5844 6598 91836 41835 87465 7898 83701 34794 77989 38038 28074 108748 80400 53559 52074 42226 76774 16891 74970 102463 33316 45009 7760 94464 52649 16070 33518 69530 16537 9131 66242 10827 66564 73016 98784 64155 27294 104809 14005 49199 47103 47095 14634 25698 33409 5429 57063 28221 6720 34629 58520 37165 35004 34943 7181 5101 29888 56274 17038 14018 23940 46075 24003 93585 75895 17690 22534
internal_count=2036742 950733 1086009 333561 617172 691479 300043 532649 223456 570506 114640 394530 484742 435543 309193 191200 84523 200715 120973 94951 69427 146028 111234 154015 137945 66715 232511 25524 72805 98958 93536 193815 203032 153620 108816 79704 67260 162981 85764 40834 19680 96249 68055 59643 43689 91352 58241 150151 8412 41556 19246 109447 117993 33245 48000 31463 18715 16711 14496 5844 6598 91836 41835 87465 7898 83701 34794 77989 38038 28074 108748 80400 53559 52074 42226 76774 16891 74970 102463 33316 45009 7760 94464 52649 16070 33518 69530 16537 9131 66242 10827 66564 73016 98784 64155 27294 104809 14005 49199 47103 47095 14634 25698 33409 5429 57063 28221 6720 34629 58520 37165 35004 34943 7181 5101 29888 56274 17038 14018 23940 46075 24003 93585 75895 17690 22534
is_linear=0
shrinkage=1


Tree=1
num_leaves=127
num_cat=0
split_feature=277 242 242 18 265 39 277 39 70 39 39 242 3 10 18 242 265 70 64 234 60 277 176 242 277 175 234 10 277 173 116 173 15 265 39 113 131 4 115 159 6 265 10 53 15 106 15 42 2 244 69 242 18 242 277 267 39 145 235 99 173 234 222 4 233 167 234 70 265 10 228 57 12 25 184 229 277 174 10 67 18 226 299 274 265 12 17 17 274 51 57 167 114 111 64 112 265 52 171 10 60 116 101 4 277 233 47 202 112 117 268 98 265 12 174 166 174 12 98 232 112 101 47 173 170 106
split_gain=508.692 264.936 103.497 95.8987 62.686 59.7222 53.7197 52.7923 44.8295 43.7627 27.1741 25.9976 24.4719 25.0591 23.4629 22.525 22.199 21.8993 19.0503 18.8156 16.6519 16.1995 14.8213 14.6782 14.179 13.3042 13.1997 11.8415 11.1837 10.6667 10.5618 10.5577 10.3975 10.3083 10.3041 10.2512 9.78246 9.52638 9.46754 10.9579 9.46608 9.37142 11.2432 8.7891 10.7745 8.69992 10.5488 8.69324 8.50631 8.49649 8.40494 8.30978 8.26415 7.90877 7.82448 7.58121 7.56983 7.46548 7.46531 7.36128 7.72029 9.26315 7.3372 7.3004 7.12416 12.7147 7.09378 7.02165 6.85948 10.2232 6.84891 6.76735 6.76091 6.74919 7.43557 6.66001 6.62107 6.59726 6.55011 6.52068 6.46972 6.44866 6.38808 6.36873 6.34604 6.32587 6.31495 6.29162 6.21901 6.04899 6.03218 9.26505 6.01071 5.95159 5.95114 5.8082 5.76832 5.64915 5.60253 5.59782 5.5814 5.4479 7.30228 5.43932 5.37317 5.36361 5.35516 5.24333 5.24201 5.11038 7.26411 5.85447 5.09639 5.08664 5.08608 5.0279 7.5527 5.02256 4.98955 4.98879 6.59098 5.80408 4.98114 4.91363 4.84868 10.7828
threshold=0.79671168327331554 0.14513952285051349 0.11332179978489877 0.26633507013320928 0.023072560317814354 -0.6730210781097411 0.45536342263221746 -0.15780177712440488 -0.29286915063858027 0.093183521181345 -0.38885150849819178 -0.29349014163017267 -0.43329185247421259 -0.46549947559833521 0.1368990242481232 -0.48048633337020868 -0.073027331382036195 -0.42291784286499018 1.7644330859184267 -0.080559559166431413 -0.24935996532440183 1.1602776646614077 0.076096810400486006 0.34195722639560705 1.1602776646614077 -0.75374650955200184 2.5894089937210087 2.069123506546021 1.6103512644767763 1.6233931183815005 -1.6694996356964109 1.0229352712631228 -0.23219718039035794 -0.19486418366432187 -0.085045550018548952 1.2270409464836123 -1.2390211224555967 -0.36182308197021479 -0.62448644638061512 0.004973077680915595 1.0000000180025095e-35 0.3287502527236939 -0.26908466219902033 -0.32051928341388697 -0.23925218731164929 0.49533221125602728 -0.22718740254640576 -0.02425186242908239 -0.18348917365074155 0.15860363841056827 0.50417491793632518 -0.088542059063911424 0.26633507013320928 -0.88862287998199452 0.50347051024436962 2.1582545042037968 0.030411913059651855 -0.89249238371849049 0.078162480145692839 1.0000000180025095e-35 1.3833451271057131 -0.21904097497463224 0.77493977546691906 -0.19199974834918973 0.15797244757413867 0.22064054012298587 -0.60145959258079518 -0.037730151787400239 0.046530224382877357 -0.15412972867488858 0.25565913319587713 2.0326349735260014 -0.77910360693931568 -0.28057816624641413 -1.2283557653427122 0.071546636521816268 1.8120142817497256 -0.96458691358566273 -0.34735187888145441 0.46935768425464636 3.3038972616195683 0.92566910386085521 3.3759846687316899 0.19815113395452502 1.1681313514709475 1.1211895346641543 0.023221652023494247 -0.1333697512745857 0.052443837746977813 -0.18727802485227582 -0.53042468428611744 -0.3213996142148971 0.61733269691467296 0.072055544704198851 1.7644330859184267 -1.1178764700889585 -0.096824962645769105 0.08651426807045938 0.45555886626243597 -0.26908466219902033 -0.46841032803058619 0.41115157306194311 -0.0099166259169578535 -0.39829213917255396 1.1351471543312075 -1.2673339843749998 1.0000000180025095e-35 -0.28057816624641413 -1.1178764700889585 0.075882721692323699 -0.98545515537261952 -0.029687249101698395 0.52664741873741161 1.1211895346641543 0.73896509408950817 -1.523069381713867 0.12396475672721864 -0.025805504061281678 -0.37148590385913843 1.9526259303092959 -0.19450536370277402 -0.0098433489911258203 -0.2966886162757873 1.2775540947914126 0.078215185552835478 -0.26971092820167536
decision_type=2 2 2 2 2 2 2 2 2 2 2 2 2 2 2 2 2 2 2 2 2 2 2 2 2 2 2 2 2 2 2 2 2 2 2 2 2 2 2 2 2 2 2 2 2 2 2 2 2 2 2 2 2 2 2 2 2 2 2 2 2 2 2 2 2 2 2 2 2 2 2 2 2 2 2 2 2 2 2 2 2 2 2 2 2 2 2 2 2 2 2 2 2 2 2 2 2 2 2 2 2 2 2 2 2 2 2 2 2 2 2 2 2 2 2 2 2 2 2 2 2 2 2 2 2 2
left_child=2 5 6 7 23 12 16 18 11 15 20 78 13 72 19 36 95 57 24 30 51 33 47 37 68 54 31 99 32 50 92 38 63 113 -19 93 -10 -4 39 75 83 42 100 -41 -45 46 -32 106 -38 -29 -27 -8 62 -14 -24 84 94 -12 -40 60 89 114 79 96 90 -66 -23 -33 69 -3 101 76 -2 104 -75 -21 82 -69 103 -36 -5 -49 85 118 -43 -68 -52 -35 -47 -18 98 -92 -11 -31 -25 -1 105 -79 -48 -20 -26 -63 -103 -7 -55 -17 -6 109 -91 110 -59 -111 -101 -9 -62 -34 119 -97 -13 120 121 -117 -16 -118 125 -60
right_child=1 3 4 80 22 8 10 21 9 14 17 40 53 -15 122 28 59 34 27 26 -22 66 25 56 41 29 -28 49 -30 35 45 67 115 87 52 -37 48 -39 58 43 -42 55 -44 44 -46 88 64 81 -50 -51 86 -53 -54 73 -56 -57 -58 107 124 -61 61 70 -64 -65 65 -67 71 77 -70 -71 -72 -73 -74 74 -76 -77 -78 97 -80 -81 -82 -83 -84 -85 -86 -87 -88 -89 -90 108 91 -93 -94 -95 -96 117 -98 -99 -100 112 -102 102 -104 -105 -106 -107 -108 -109 -110 111 -112 -113 -114 -115 -116 116 123 -119 -120 -121 -122 -123 -124 -125 -126 -127
leaf_value=0.003143974123438701 0.0012530705775442323 -0.00086169959920348723 -0.0013958737803824847 7.7395361917121123e-05 -0.00073077289725859379 0.0030405228828046826 0.00086393307246771282 -0.0012315634230063597 0.0022070735419499761 0.0029876128376205417 0.00083389515247945091 0.00026880246462090881 0.00020197515741096294 -0.0014479660772344794 0.0030395251970742557 -1.6899807996429906e-06 0.0028940052505978743 8.3244368268060745e-05 -0.0019550957584791966 0.0040463678947421384 -0.00092450560292746625 -0.0012336364991842803 0.0040720138058797026 -0.0020077127711372457 -0.00040269496066946064 -0.00051533624709015262 0.0032875619796591 -0.0042307509844590465 -0.0024166062218968897 0.0059048581975877455 2.227857162118563e-05 0.00030229650611596865 -0.0025222220754339275 -0.0015220059757619496 0.00089810561489070309 0.001085061162043758 0.00049331316124704555 -0.0002181750594714209 -0.0027933747141607279 -0.0027085918048168128 -0.00035098258381733894 -0.0020433248647282651 -0.0036935282681676315 -0.0012825421031276861 0.0024682468191936768 0.00063517425474381986 0.00033245138989192879 0.00052190939701014067 -0.0010131152274466446 -0.0010092736026983723 0.00017503538060105347 5.2214481829470554e-05 0.0024142240816682156 -0.0015380457700227682 0.0016549469569450148 -0.00394435942002919 -0.00064666391786475513 -0.00094206788875222502 0.0024916132915272712 0.00035031803337749886 0.0013961649003813737 0.0065920100934301357 0.0013424132669751954 -0.0028645048542006086 0.001172319779688719 -0.0028144684533367359 -0.001855529978721722 -0.0047123484421679853 -0.0012895798102945547 -0.0026929180974106168 0.0021125219984483045 -0.00023794643653277269 -0.00012345761820964162 0.00092066127345644209 -0.0014831801510524407 0.00046682152709647776 -0.0044746624900888861 -0.0030023379710474732 0.00064330488427204191 4.4669036184356064e-05 0.0014770705362747646 -0.0023457456355889441 0.00017316635110858024 -0.00017216731940424945 0.00066855170001010292 -0.0033319239689767136 0.0014305005236782574 -0.00017166341165906107 -0.0010777154498475504 0.0038154652885548121 0.0018802162638249199 0.0060030152373006683 -0.00012967675065369793 0.0023114903466394652 -0.0045772891678407786 0.0014374971068282232 -0.00075814409252959877 -0.00044740894284392516 0.0027896138461611301 -0.0047039526693926342 -0.0028258981939510378 0.0022687007359905114 0.0059277362570942056 0.0015130779090338489 -0.0025715672401715991 -0.0019526669256877763 -0.0042497764359814205 0.0012224048519665312 0.0018139614883164749 0.0017790954033738368 0.0016493580482022996 0.0027359559056197302 -0.0029248619474697237 -0.0028722835129342127 0.0041263735452028326 -0.00010452826477372623 -0.00066076734157291756 0.00066571954724147083 0.0010384461483423475 0.0024537516169409628 0.00073278075023028571 -0.0033503085861591366 0.0013195401251632785 -0.0028958569502029303 -0.0011651838564998491 -0.00071267363067864747
leaf_weight=4015 16727 9710 23595 20359 2257 6829 75128 13886 4921 6085 30178 37542 5316 29535 6162 4034 21614 44629 2623 2949 23459 20863 4749 19719 4144 15878 2095 3094 16713 2066 34581 2772 2665 11081 64947 10484 21558 63065 4393 2824 47965 18588 39045 3909 3751 7977 6156 13622 16575 6046 18821 54331 9004 22137 11356 4729 10022 3328 3520 4644 6946 3083 50934 7615 11429 2423 15763 2606 26811 35457 2942 3381 19111 3753 22496 2323 4078 4778 19390 34150 13887 2289 2352 27671 2440 13451 21410 38926 15781 3462 4089 2044 2073 2609 2544 69857 32454 3954 3722 21879 5571 2947 2540 39806 29136 27801 2075 38527 59408 45845 14414 24554 4941 7161 2261 3792 16430 30195 47962 2532 12690 2162 13290 2891 16586 10322
leaf_count=4015 16727 9710 23595 20359 2257 6829 75128 13886 4921 6085 30178 37542 5316 29535 6162 4034 21614 44629 2623 2949 23459 20863 4749 19719 4144 15878 2095 3094 16713 2066 34581 2772 2665 11081 64947 10484 21558 63065 4393 2824 47965 18588 39045 3909 3751 7977 6156 13622 16575 6046 18821 54331 9004 22137 11356 4729 10022 3328 3520 4644 6946 3083 50934 7615 11429 2423 15763 2606 26811 35457 2942 3381 19111 3753 22496 2323 4078 4778 19390 34150 13887 2289 2352 27671 2440 13451 21410 38926 15781 3462 4089 2044 2073 2609 2544 69857 32454 3954 3722 21879 5571 2947 2540 39806 29136 27801 2075 38527 59408 45845 14414 24554 4941 7161 2261 3792 16430 30195 47962 2532 12690 2162 13290 2891 16586 10322
internal_value=4.44336e-06 -0.000737086 0.000846382 -0.0018682 -8.67809e-05 -0.000196434 0.00113705 -0.00214055 3.0845e-05 -0.000318217 0.000859689 0.000580067 -0.00109289 -0.000369647 0.000223156 -0.00088362 0.00180277 0.0010966 -0.00268412 2.74394e-05 0.000301169 -0.00137222 0.00078759 -0.000877871 -0.00242376 0.00107003 -0.000617563 -0.00367263 -0.00120801 0.000776707 0.000474458 -0.000744086 -0.00103245 -0.000861632 0.000754606 0.00195351 0.000109282 -0.000538841 -0.000406677 0.00061027 0.000237675 -0.00290723 -0.00331479 -0.000324812 0.000554252 0.000315245 0.000616753 -0.000431457 -0.000161485 -0.00210013 0.000458741 0.000523276 0.000943004 -0.00166364 0.00236789 -0.00213558 -0.00178786 0.00154066 -0.000866836 0.00229854 0.00238454 0.00324954 0.000854694 -0.00140069 0.00130512 0.000474796 -0.00197799 -0.00195341 -0.0019232 -0.00229927 0.00419503 -0.00237588 0.000519039 -0.00179157 -0.00113946 0.0024695 -0.00257866 -0.00250487 0.00141569 0.000604005 0.000645 0.000109239 -0.00233358 0.000487157 -0.00172863 -0.0025354 0.000843184 -0.000470909 -0.000502592 0.00217237 0.00202341 0.00325501 0.00219557 0.00390041 -0.00230153 0.00127944 -0.00122726 -0.00184561 0.00125849 -0.00416069 -0.00179241 0.00490961 0.00396328 0.00173681 -0.00212539 -0.00170545 -0.00241694 0.00170904 0.00192424 0.00192173 0.00116324 0.00211287 -0.00437632 -0.00178991 0.00206701 -0.000418976 -0.000280508 0.00120459 0.000700528 0.000371718 8.88457e-05 -0.00128349 0.00186452 -0.000995336 -0.000588612 0.000102293
internal_weight=2.03697e+06 1.08307e+06 953903 350266 226561 732803 727342 316020 584592 357427 513428 227165 148211 65373 182594 174833 213914 360510 185078 163142 152918 130942 107616 118945 146495 87373 66782 38583 131779 71268 96360 64687 115066 71054 203664 15159 43054 86660 50577 15756 161140 74517 48760 10484 7660 88202 64444 20243 38133 9140 56109 129459 159035 82838 16105 25757 32285 156846 34821 109847 105203 20719 150031 71904 29863 13852 59888 14110 71978 45167 11512 39025 35838 77522 26249 5272 35644 11338 66025 99097 34246 15911 31566 113175 21028 29214 40231 50007 23758 84484 16011 6133 8158 4675 22263 104067 64289 8732 9878 29443 9715 8570 5487 46635 51273 31835 4332 126668 62870 88141 17742 70399 26820 21047 9207 43162 40497 100052 85504 21176 18644 5954 19452 19321 30428 13842
internal_count=2036972 1083069 953903 350266 226561 732803 727342 316020 584592 357427 513428 227165 148211 65373 182594 174833 213914 360510 185078 163142 152918 130942 107616 118945 146495 87373 66782 38583 131779 71268 96360 64687 115066 71054 203664 15159 43054 86660 50577 15756 161140 74517 48760 10484 7660 88202 64444 20243 38133 9140 56109 129459 159035 82838 16105 25757 32285 156846 34821 109847 105203 20719 150031 71904 29863 13852 59888 14110 71978 45167 11512 39025 35838 77522 26249 5272 35644 11338 66025 99097 34246 15911 31566 113175 21028 29214 40231 50007 23758 84484 16011 6133 8158 4675 22263 104067 64289 8732 9878 29443 9715 8570 5487 46635 51273 31835 4332 126668 62870 88141 17742 70399 26820 21047 9207 43162 40497 100052 85504 21176 18644 5954 19452 19321 30428 13842
is_linear=0
shrinkage=0.05


Tree=2
num_leaves=127
num_cat=0
split_feature=276 6 5 18 5 11 39 39 39 39 3 265 242 17 11 39 10 175 265 10 11 18 6 276 5 18 5 11 10 276 175 18 54 72 5 287 11 242 263 243 39 265 64 242 117 278 74 148 5 240 299 39 175 5 91 11 146 47 5 40 58 284 7 6 5 242 35 268 52 11 18 120 226 235 175 173 11 64 273 87 235 25 109 227 111 15 99 173 113 267 5 274 112 226 146 276 176 265 174 235 188 101 108 173 111 11 45 39 87 57 15 71 161 57 116 173 49 235 15 69 86 87 57 171 175 242
split_gain=490.125 239.493 103.668 93.7416 83.4804 75.0529 53.667 52.4491 49.4963 46.4474 26.8391 26.5335 24.7817 23.8458 26.6974 29.1697 20.8104 18.764 17.9032 22.2292 17.5503 17.1494 14.8366 14.2825 13.5154 13.4543 12.2715 12.2207 12.0757 15.7153 11.918 12.2247 10.8107 10.2077 9.9484 9.45669 9.30364 9.20647 9.15549 8.96964 9.87632 8.83023 8.70763 8.67507 8.61818 8.39901 9.68443 8.35469 8.2408 8.21199 8.11337 8.09394 7.95607 7.87443 7.40777 7.12409 6.69099 6.48713 6.4631 6.4162 6.21699 6.20634 6.18265 6.13159 6.10804 11.6371 7.91877 6.10727 6.07277 5.98723 5.97657 5.88697 5.87249 5.81142 8.03965 7.25382 5.80093 5.74743 5.68937 5.64157 5.54893 5.31694 5.52495 5.27382 5.21767 5.17976 5.15503 5.12597 6.4607 5.04733 5.00215 4.97721 4.9607 5.89663 4.93859 4.86922 4.80848 4.80306 4.73376 5.64687 5.41088 4.731 7.42462 4.99712 4.63247 4.77864 4.61681 4.61092 4.57738 4.97728 4.56173 4.73293 4.46719 4.94914 4.42923 5.10949 5.28187 4.31498 4.26348 4.25606 4.25175 4.24281 4.2288 4.67072 4.16801 4.12808
threshold=0.79752749204635631 0.37593412399291998 0.52343159914016735 0.26633507013320928 0.72319149971008312 -0.44893188774585718 -0.24371810257434842 -0.15780177712440488 -0.15780177712440488 -0.57532507181167591 -0.50063577294349659 0.11865958571434022 0.022023877128958706 0.21354757249355319 -0.22293224930763242 0.030411913059651855 -0.42493787407875055 -0.28126156330108637 0.023072560317814354 -0.076524756848812089 -0.29329785704612726 0.1368990242481232 -0.62643241882324208 1.2980872392654421 -0.38244825601577753 0.1368990242481232 1.0423485040664675 -0.24212113767862317 1.8270930051803591 1.2237958908081057 -1.7160849571228025 0.1368990242481232 -1.7879081964492796 -1.3866946101188657 3.2657096385955815 0.018821409903466705 -0.38349728286266321 1.0000000180025095e-35 0.91937991976737987 -0.42966051399707789 -0.33624468743801111 0.14254320412874225 1.2181516289711001 -0.88862287998199452 0.075882721692323699 0.11968213319778444 -0.29551224410533899 1.3765302300453188 -1.2326554656028745 -0.36484923958778376 0.089579194784164443 1.0000000180025095e-35 -1.6719965338706968 1.0423485040664675 0.090756759047508254 -0.13081499934196469 1.0000000180025095e-35 -0.720005303621292 1.2087010741233828 0.054101776331663139 0.075900830328464522 0.038453955203294761 -1.3844383955001829 0.1344598010182381 3.2657096385955815 0.65319412946701061 -0.33970196545124048 0.97790172696113598 0.25028356909751898 -0.38349728286266321 0.26633507013320928 0.12602148950099948 1.1341844201087954 0.078660324215888991 0.67215201258659374 0.15196532011032107 1.0000000180025095e-35 0.58601433038711559 0.14513702690601352 -1.2168992161750791 0.07519568502902986 -0.3516810536384582 -0.58049374818801869 -0.58720096945762623 0.072055544704198851 -0.23636992275714871 1.0000000180025095e-35 0.51823347806930553 -0.32868494093418116 2.1582545042037968 -0.59714046120643605 0.035484252497553832 -0.97448524832725514 -0.45413498580455774 1.4604735374450686 0.60027998685836803 0.076096810400486006 0.023072560317814354 -0.30236412584781641 0.076863195747137084 -0.32213358581066126 -0.010742187499999998 1.2320645451545718 1.1510388255119326 0.35245837271213537 -0.54525074362754811 -0.98941138386726368 -0.7136111557483672 1.8363211750984194 2.0326349735260014 -0.24491580575704572 0.076603692024946227 -3.0036098957061763 -1.6685037016868589 -0.21350859850645063 1.0229352712631228 0.93122854828834545 0.079555839300155654 -0.20507086068391797 -0.63411572575569142 0.49464496970176702 -1.3605046868324278 -0.59685480594634999 0.058895470574498184 0.51640912890434276 -0.48048633337020868
decision_type=2 2 2 2 2 2 2 2 2 2 2 2 2 2 2 2 2 2 2 2 2 2 2 2 2 2 2 2 2 2 2 2 2 2 2 2 2 2 2 2 2 2 2 2 2 2 2 2 2 2 2 2 2 2 2 2 2 2 2 2 2 2 2 2 2 2 2 2 2 2 2 2 2 2 2 2 2 2 2 2 2 2 2 2 2 2 2 2 2 2 2 2 2 2 2 2 2 2 2 2 2 2 2 2 2 2 2 2 2 2 2 2 2 2 2 2 2 2 2 2 2 2 2 2 2 2
left_child=2 4 5 8 9 6 12 27 18 10 16 26 17 14 22 33 48 50 19 98 63 39 49 42 87 41 79 37 29 -20 -17 47 -8 -16 71 44 106 62 70 -6 58 77 53 -12 54 46 124 94 91 90 57 69 -14 -10 68 -45 -54 -1 -41 108 80 64 -7 -9 65 120 -66 -26 81 -24 95 -30 -52 75 -75 83 -35 85 -5 -4 -57 -34 -83 -46 -76 -22 97 125 -89 -31 -11 -2 -42 -94 114 -13 -40 -37 -3 -100 -101 102 -58 -103 105 -47 -21 -64 109 112 111 -81 -25 -114 122 116 -116 -117 -29 -55 -38 -28 -32 -124 -19 -15
right_child=1 3 11 78 21 7 32 20 23 13 43 38 52 24 15 30 -18 45 28 36 25 -23 51 59 67 -27 121 118 34 89 31 -33 35 76 -36 86 61 -39 96 40 92 -43 -44 55 73 104 -48 -49 -50 -51 72 -53 56 119 -56 60 101 -59 -60 -61 -62 -63 107 -65 66 -67 -68 -69 -70 -71 -72 -73 -74 74 84 -77 -78 -79 -80 110 -82 82 -84 -85 -86 -87 -88 88 -90 -91 -92 -93 93 -95 -96 -97 -98 -99 99 100 -102 103 -104 -105 -106 -107 -108 -109 -110 -111 -112 -113 113 -115 115 117 -118 -119 -120 -121 -122 -123 123 -125 -126 -127
leaf_value=-0.00015389735213007901 0.0036266100867922801 -0.00088278299640982643 -0.0019115424702741812 0.00099497044030812955 0.00059761553843103372 0.0025172797926311628 0.0039381339299037997 0.0015005882581829813 -0.00036969143839709787 0.0031826405516800788 0.00037715500356064972 0.00028020954900269071 -0.0023710242506365417 0.0037806885551484441 0.00050817412521602951 0.0029213343777730228 -0.00098417456806312105 0.003974777998729819 -0.0016075437581067635 -0.0039546130289055768 -4.533063624544549e-05 0.00060279501717060103 0.00029121378214010547 -0.00089057377492495144 0.00090976982076500462 0.0019177667504458908 -0.0040664777665890498 -0.0011857918620615522 -0.0021630464358284342 -0.0029654589896510645 1.1264750828644344e-06 0.0016543510086130843 0.0035556519825341022 -0.00074948715440588062 0.00090691929786540558 0.0011800901602987855 -0.004596345081336539 -0.00064239614141279504 -0.00046558853751098631 -0.0020326997309165957 -0.0034857994580527285 0.00085595586112279887 -0.0020435244616585301 -0.00094983170283316769 0.0035491358205999319 0.0020900991779505347 0.0015421565189091147 -0.00100362889246432 0.00055045555908652018 0.00084802850753878251 6.5117703419201108e-05 0.0010038968258971072 -0.00016406399005556129 -0.0035316580429968925 0.0030711900218650537 -0.0016878351248119706 0.00062789400183960566 0.001072699380409837 -0.0034469087082000987 0.00029819630465468248 -0.0021568186245337186 -0.0027175060813235969 -0.00055065325643640077 0.00073065384001472244 -0.0011550321787365462 -0.0056541119296625655 -0.0049202304645471553 -0.00092942239673973021 -0.00074062266698882162 -0.00062060332528800514 0.0021014645259604236 0.00067744521816451688 -0.0026135780648400466 0.0024445154985898946 -0.00038845855411118966 0.0048859956072338524 -0.0016569055508076633 -0.00091093865086073122 -0.00046993955941112154 -0.00046995414307751898 0.00087152848694042851 -0.0012709423952452551 0.001516577787345839 0.0017069975621792886 0.0018059383201979844 0.00074665484216973534 -0.00015052606327080122 -0.001265594315689556 0.0022190149187599037 -0.0044766757962085195 0.0013616051165687036 0.00069854918557523782 -0.0020306636200637823 -0.00069425880773559239 0.0013428012742846536 -0.00093559885804467323 0.0017975814142721397 0.0019528130412305514 -0.00072738146993437183 -0.0015132734716257756 -0.0041603752433050393 0.0010100568565575977 -0.0025380545358306352 0.0034005811668338737 -0.00014022335148830152 0.0009734442420123757 -0.0024056916244760158 0.00042277417027650861 -0.00080753951940904097 -0.00012374935261340691 1.9576957081139988e-06 -0.0017730859270860587 -0.0005584469715387225 -0.0029435544511511166 -0.00027860376157152984 -0.0031050025869536219 0.0018729790447013556 -0.00066918317724800572 6.191944837241667e-05 -0.0013161846268053186 -0.0031335201773632325 -0.0018399668697207654 -2.4607935511699052e-05 0.0018182507842932965 0.0024686139922385423 0.0020626917749841413
leaf_weight=12715 4148 8424 8650 23796 3138 3058 6719 93325 41695 6975 6760 17685 3009 5709 9423 3872 24179 6634 24269 6785 57033 6847 47616 3471 23803 15787 2375 37655 13049 27718 24310 11428 2324 32373 4517 37577 9027 37167 2899 15503 3083 62786 16209 35625 7911 15151 29937 19424 20992 43609 10750 23697 42897 2583 4719 5444 18901 70795 16885 2548 38898 7146 15287 35774 3203 14379 2476 5569 4512 28947 2846 2120 2526 57582 4261 4701 38635 12311 9186 19512 3465 2269 8196 7641 7434 32357 4470 2071 3715 6907 8214 2233 17187 15883 7821 15410 12317 43280 3400 3121 5067 9805 2052 2813 5671 26068 16568 59557 4692 2152 22682 10838 2340 30938 27096 2673 3187 5683 8368 13479 11076 21596 5717 8625 14966 9036
leaf_count=12715 4148 8424 8650 23796 3138 3058 6719 93325 41695 6975 6760 17685 3009 5709 9423 3872 24179 6634 24269 6785 57033 6847 47616 3471 23803 15787 2375 37655 13049 27718 24310 11428 2324 32373 4517 37577 9027 37167 2899 15503 3083 62786 16209 35625 7911 15151 29937 19424 20992 43609 10750 23697 42897 2583 4719 5444 18901 70795 16885 2548 38898 7146 15287 35774 3203 14379 2476 5569 4512 28947 2846 2120 2526 57582 4261 4701 38635 12311 9186 19512 3465 2269 8196 7641 7434 32357 4470 2071 3715 6907 8214 2233 17187 15883 7821 15410 12317 43280 3400 3121 5067 9805 2052 2813 5671 26068 16568 59557 4692 2152 22682 10838 2340 30938 27096 2673 3187 5683 8368 13479 11076 21596 5717 8625 14966 9036
internal_value=-2.04855e-06 -0.000830239 0.000724124 -0.00193858 -0.000262699 0.000909668 0.00135073 0.000461275 -0.00222645 -4.53244e-05 -0.00082536 -0.000562588 0.000894745 0.000224857 8.26186e-05 -0.000301471 8.46844e-05 0.00119777 -0.00277733 -0.00325608 0.000842227 -0.00178788 0.000566218 -0.00145015 0.00124902 0.000523533 -0.00110072 -0.000270335 -0.00222488 -0.00258323 0.000192896 0.00010177 0.00196593 -0.00103803 -0.00115271 0.0018986 -0.00367272 5.08365e-06 0.000338413 -0.00201624 -0.00213592 0.000389708 -0.00101948 -0.00134552 0.00220169 0.00168387 0.00212444 -6.79747e-05 0.00102883 0.00119679 0.000703415 0.000196406 0.000150443 -0.000732065 0.00131542 -0.0014851 0.000249692 0.000885942 -0.00277006 -0.00214048 -0.00188394 -0.00407589 0.000314 0.00128724 -0.00431752 -0.00456781 -0.00279721 0.000561035 0.000836366 -5.35304e-05 -9.68187e-05 -0.00176604 -0.000444711 0.00241965 0.00220177 0.00316479 -0.00124322 0.00010186 0.000586968 -0.000727608 -0.000692429 0.00139275 0.00091213 0.00264423 0.00100646 0.000241354 0.00150235 0.00223319 0.000971755 -0.00326704 0.002198 0.00260222 -0.00156776 -0.00138885 0.000145567 -0.000285918 0.00136639 0.00159372 -0.00178486 -0.00244051 -0.00315169 0.000778377 0.000317735 0.00154322 0.0011996 0.00138394 -0.00285587 0.000223945 -0.00228303 -0.00246096 -0.000534465 -0.000935346 -0.00259782 -0.00277586 2.44039e-05 -0.000354158 -5.21156e-05 -0.00144866 -0.000958934 -0.00167266 -0.00379058 -0.00206073 0.000402838 0.0010837 0.00293136 0.00272808
internal_weight=2.0374e+06 951839 1.08556e+06 322341 629498 948751 478286 470465 289359 550972 141744 136810 274690 409228 359325 200267 51552 195213 169252 90672 309373 78526 159058 120107 49903 180274 85653 161092 78580 58894 119836 115964 203596 80431 19686 196877 70660 115069 51157 71679 68541 164487 73966 90192 111550 98427 51537 104536 27373 58798 96786 100260 79477 57757 22020 83432 76468 83510 32388 46141 47807 47307 77902 129099 40161 34482 5679 29372 17301 76563 35941 15169 13276 89530 69277 20253 71008 101701 32982 61682 8909 12789 10465 15552 11695 89390 85327 20531 5786 34625 15189 6381 36153 33070 85112 33095 15216 80857 20012 11588 8188 33571 20953 12618 46890 41219 23353 74844 43593 38901 53032 30350 36749 33278 77291 38639 30283 8356 46023 16062 20103 23971 38652 14342 21600 14745
internal_count=2037400 951839 1085561 322341 629498 948751 478286 470465 289359 550972 141744 136810 274690 409228 359325 200267 51552 195213 169252 90672 309373 78526 159058 120107 49903 180274 85653 161092 78580 58894 119836 115964 203596 80431 19686 196877 70660 115069 51157 71679 68541 164487 73966 90192 111550 98427 51537 104536 27373 58798 96786 100260 79477 57757 22020 83432 76468 83510 32388 46141 47807 47307 77902 129099 40161 34482 5679 29372 17301 76563 35941 15169 13276 89530 69277 20253 71008 101701 32982 61682 8909 12789 10465 15552 11695 89390 85327 20531 5786 34625 15189 6381 36153 33070 85112 33095 15216 80857 20012 11588 8188 33571 20953 12618 46890 41219 23353 74844 43593 38901 53032 30350 36749 33278 77291 38639 30283 8356 46023 16062 20103 23971 38652 14342 21600 14745
is_linear=0
shrinkage=0.05


Tree=3
num_leaves=127
num_cat=0
split_feature=276 242 5 18 276 5 39 39 242 45 39 11 11 39 265 62 64 39 242 11 5 64 265 5 265 27 145 148 18 5 39 11 242 6 54 158 175 11 5 45 70 72 171 5 274 117 287 17 4 18 98 18 70 131 280 18 17 263 10 89 39 5 87 5 22 11 73 240 39 242 71 265 231 234 172 11 3 253 160 242 264 66 115 87 64 227 64 43 174 64 84 5 39 275 87 281 281 235 21 168 265 265 106 64 10 111 233 284 227 132 40 158 133 57 11 48 276 207 265 35 18 17 123 215 69 73
split_gain=440.678 203.253 114.006 82.1557 75.4777 63.8256 42.8634 39.8226 32.6522 30.902 28.0201 26.8495 24.9918 19.5855 19.4071 18.2945 16.8476 16.7845 16.7113 15.9753 14.6421 29.7055 14.2844 13.2164 12.7482 12.186 12.0586 12.025 11.9415 11.8489 11.7787 12.0514 11.5847 11.0374 10.3786 9.89079 10.3288 9.68427 9.50991 8.70636 8.69559 8.65888 8.23165 8.18475 8.78492 7.96703 7.91981 7.84449 7.90373 7.4659 7.13224 7.11235 9.3939 7.04735 7.01083 6.94328 6.77522 6.72349 6.71531 6.96436 6.68634 6.56921 6.50235 6.43412 6.29244 6.40751 6.24644 6.14059 6.11707 6.04033 6.03084 5.98185 5.97437 5.84507 5.81843 5.65338 5.65186 5.63053 5.53387 6.45727 5.83778 5.40622 5.38952 5.30772 5.29373 5.27427 5.26978 5.26116 5.14061 5.10329 5.09235 5.06949 5.02597 5.01529 4.99318 4.93853 4.85886 4.83536 4.64028 4.61076 4.58716 4.56949 4.47858 4.45044 4.44735 4.44403 4.43598 4.43492 4.31407 4.2692 4.22561 4.27357 4.19842 4.19095 4.59642 4.69856 4.18342 4.15896 4.15122 4.11989 4.08261 4.08201 4.03918 4.02067 3.95386 4.40527
threshold=0.86123690009117138 0.14513952285051349 0.47113260626792913 0.26633507013320928 0.42525480687618261 0.34261579811573034 -0.26248240470886225 -0.3719478696584701 -0.3671146929264068 -0.62391427159309376 -0.28065700829029078 -0.47279253602027888 -0.39391461014747614 -0.22342006862163541 -0.21956778317689893 -0.30392603576183314 0.58601433038711559 0.030411913059651855 0.010760438162833454 -0.32229608297348017 3.2657096385955815 1.7644330859184267 0.11865958571434022 1.2087010741233828 -0.2720531672239303 0.69575828313827526 0.29141047596931463 1.7252500653266909 0.1368990242481232 1.0423485040664675 -0.26248240470886225 -0.38349728286266321 0.56000518798828136 1.5164912939071657 -2.0366131067275997 0.017832924611866478 -1.7160849571228025 -0.49523667991161341 1.0423485040664675 0.46501012146472936 -0.27689039707183832 -1.9511337876319883 -0.40590167045593256 -0.51487118005752552 0.0374965537339449 0.075882721692323699 0.018821409903466705 0.16235797852277759 -0.045318048447370522 0.26633507013320928 -1.0000000180025095e-35 0.26633507013320928 -0.15722946822643277 -1.1201574206352232 0.60834893584251415 0.26633507013320928 0.23522385209798816 0.47316010296344763 -0.11544857174158095 1.1377709507942202 -0.20195962488651273 0.91441112756729137 -0.096280720084905611 1.0423485040664675 -0.31536158919334406 -0.36075827479362482 0.35953527688980108 -0.37587195634841913 -0.18024556338787076 0.010760438162833454 -0.6735343039035796 0.74948927760124218 -1.4533182978630064 -0.60837075114250172 2.9184927940368657 -0.18104766309261319 -0.5404565930366515 0.0070343043189495811 -0.028307745233178135 0.65319412946701061 0.32051627337932592 -1.3851299881935117 -1.1741558313369749 -1.0352432727813718 1.0558459162712099 0.78023153543472301 0.65252140164375316 -2.9922186136245723 -0.30236412584781641 0.52672532200813305 -0.31914526224136347 -0.98033997416496266 0.030411913059651855 0.039971727877855308 -0.77342686057090748 0.072397753596305861 0.081163693219423308 0.073916576802730574 -0.35866053402423853 -0.18171664327383039 0.21873640269041064 0.070477101951837554 0.02875409554690123 1.2181516289711001 -1.4156213402748106 0.07825887575745584 -0.37750178575515742 0.038453955203294761 1.4790431857109072 0.45837423205375677 -1.0000000180025095e-35 -1.0000000180025095e-35 0.13952697813510898 -1.6685037016868589 -0.18104766309261319 0.98985093832016002 0.53945037722587597 -0.12814715504646298 -0.29804486036300654 -0.082446888089179979 0.066476542502641692 0.054154993966221816 1.0571635365486147 -0.20059872418642041 1.4882451891899111 -1.1811386942863462
decision_type=2 2 2 2 2 2 2 2 2 2 2 2 2 2 2 2 2 2 2 2 2 2 2 2 2 2 2 2 2 2 2 2 2 2 2 2 2 2 2 2 2 2 2 2 2 2 2 2 2 2 2 2 2 2 2 2 2 2 2 2 2 2 2 2 2 2 2 2 2 2 2 2 2 2 2 2 2 2 2 2 2 2 2 2 2 2 2 2 2 2 2 2 2 2 2 2 2 2 2 2 2 2 2 2 2 2 2 2 2 2 2 2 2 2 2 2 2 2 2 2 2 2 2 2 2 2
left_child=2 5 4 6 14 8 20 12 15 19 29 45 18 38 64 43 26 53 73 58 21 23 49 33 32 -22 39 47 113 62 31 -11 106 40 -16 36 90 60 104 75 -3 -40 105 44 87 109 72 48 103 61 67 52 -32 88 -44 101 70 -31 93 -60 110 -12 98 117 -1 69 -27 91 -39 94 -46 -35 -47 -6 102 -13 -75 -55 -23 -80 -81 -14 -56 -24 -69 -37 -74 -2 -17 -20 -36 -21 -54 -10 -66 -77 -83 -41 -4 -84 -79 -18 -5 -26 -7 -19 -8 -42 -50 -9 -38 -112 -29 -15 -115 -116 -64 -49 -28 -120 -52 -94 -33 -99 125 -25
right_child=1 3 10 74 7 13 24 11 9 30 22 16 81 28 34 17 55 42 89 50 25 78 83 124 27 66 118 112 -30 57 51 122 -34 71 35 85 37 68 41 97 107 -43 54 -45 56 46 -48 63 108 -51 120 -53 92 77 82 -57 -58 -59 59 -61 -62 -63 116 -65 65 -67 -68 84 -70 -71 -72 -73 86 76 -76 95 -78 100 79 80 -82 96 99 -85 -86 -87 -88 -89 -90 -91 -92 -93 121 -95 -96 -97 -98 123 -100 -101 -102 -103 -104 -105 -106 -107 -108 -109 -110 -111 111 -113 -114 114 115 -117 -118 -119 119 -121 -122 -123 -124 -125 -126 -127
leaf_value=-0.00095116485592618193 0.00051463902337738738 -0.0012706400736095353 -0.0021776301335067285 0.0014702676361099197 0.00017491197116798135 0.00067841088352598377 -0.00069194253358991961 0.00088355069005868086 0.0011754776267183847 0.00034792314114851885 -0.00033048706866930025 0.00052751556954779705 0.00098288230166010296 0.0010203865594301282 0.0042732211828861054 0.002592734402366756 -0.00087283235439561478 0.00078668063578786343 -7.7569477655060038e-05 0.0012337591945410444 -0.0030698264805905941 -0.0031255271163009054 -0.00099966984946304452 -0.0020109069365757308 -0.00062205555511777449 -0.001529982835746989 0.00057721150591313376 -0.0030294447494723471 0.0012459078101917861 -0.00293578383317735 0.00099390037114719526 -0.00088726571116871293 -0.0036378352634595258 -0.0036209262631118908 0.0015352155925980816 0.0008064216476845929 -0.0001820093968548266 0.00053840558211335746 -6.4356486955436361e-05 0.0024522439198081626 -0.0027990343032485952 -0.003106774608424968 0.00048169952246364302 0.00051691368137090114 0.0014014154605560699 0.0042686371433618853 0.0011896099393960541 0.0016054065526430743 -0.0022756407302118027 0.0014430574604235675 -0.00097902368936580997 0.0021199157792507789 -0.0011077178822077559 -0.0014848630982145388 0.0040075920683482896 0.001613729544812233 0.0032260659440976158 -0.00075853234756485398 -0.00041132837264060075 -0.002918564013725488 0.002634282220014602 -0.0014821340064795083 0.00048480850144359729 -0.0012854225494854255 0.00087398941122781453 0.00020539059084538196 0.0009399160928598568 -0.0017175834615008848 0.0016786771929468024 0.00054853949421143123 -0.00021727303838974758 -0.00095751171648430968 0.0021334970254572039 0.0013011999815907556 -0.0014713608600946933 -0.0009241736241582196 0.00040947883317442004 -0.00095186245493567793 -0.0036984337260460294 -0.0064191345981400487 -0.0042761430976749979 -0.0010678300859184124 0.0026162128535278145 0.00075434605363494038 -0.0033350456402886919 -0.0021427174366224423 0.0004005336439823708 0.0029161277856524087 -0.00026995142748062017 -0.0012004147171073066 -0.0016602996791135584 -0.0012609990733560713 -0.00018237643179670686 -0.0002614512474835869 0.0017906350073104906 0.00014622304227605257 -2.8347442083756299e-05 0.00034319830704267554 -0.00087229321352858945 0.00064683783834069454 0.00067065916907201202 0.00011648032269420635 0.00020403968579845236 -0.0018288251801421747 -0.0015894706461546636 -0.001840732111911839 -0.0022681113342433645 -0.0013257675122686427 -0.0001609224672507616 -0.0011130446566122991 -4.5275373950153811e-05 0.0020279018183200219 -0.00078272397267203052 -0.00028701383019242389 -0.0015922083023316672 0.00021106914927749318 -0.00089232313641555863 -0.0001902946867839262 0.001520706528357214 0.00077613881819198227 0.00065231132924564413 0.00084210467480417932 -0.0025463712060423624 0.0011286126268657112 -0.0017833571650810274 -0.0040945638250162583
leaf_weight=4101 2741 30074 12043 12752 35318 2299 7500 19602 10960 26057 36557 61381 4238 2634 4148 2667 25789 2704 34737 2818 6277 7295 4773 2967 32615 5025 25748 11305 7307 14254 36059 24601 11740 16001 2080 5181 2531 14640 2651 4754 23275 19850 17737 29411 14536 2961 47678 4754 21410 4296 16411 6239 9320 18721 2633 4581 3151 4721 14285 3435 47810 18725 9741 9403 22838 18835 5216 37930 59846 24407 9524 2429 42153 45809 3204 15666 29032 9940 9125 6962 5867 55291 5295 44677 5838 2142 4897 13593 3804 14278 3109 7334 28009 13615 42526 34515 14111 27883 15667 6775 7753 21321 15436 9977 36070 3973 11031 6548 2718 3100 2630 45307 2549 14420 28139 4144 12708 10017 62226 26492 5004 14892 4311 39209 2777 17611
leaf_count=4101 2741 30074 12043 12752 35318 2299 7500 19602 10960 26057 36557 61381 4238 2634 4148 2667 25789 2704 34737 2818 6277 7295 4773 2967 32615 5025 25748 11305 7307 14254 36059 24601 11740 16001 2080 5181 2531 14640 2651 4754 23275 19850 17737 29411 14536 2961 47678 4754 21410 4296 16411 6239 9320 18721 2633 4581 3151 4721 14285 3435 47810 18725 9741 9403 22838 18835 5216 37930 59846 24407 9524 2429 42153 45809 3204 15666 29032 9940 9125 6962 5867 55291 5295 44677 5838 2142 4897 13593 3804 14278 3109 7334 28009 13615 42526 34515 14111 27883 15667 6775 7753 21321 15436 9977 36070 3973 11031 6548 2718 3100 2630 45307 2549 14420 28139 4144 12708 10017 62226 26492 5004 14892 4311 39209 2777 17611
internal_value=-1.48426e-06 -0.000867452 0.000623216 -0.00187918 0.000829885 -0.000278965 -0.00214886 0.00054576 7.97212e-06 -0.000326982 -0.000542474 0.000810673 1.10074e-05 -0.00130955 0.00149077 0.000585368 0.00058888 7.29265e-05 0.000363366 -0.000933234 -0.00273825 -0.00291523 -4.31566e-05 -0.00251126 -0.00150518 -0.00133534 0.000733478 -0.00124398 -0.000640393 -0.00132991 0.000150072 -0.000431913 -0.00240896 -0.00219993 0.00179988 0.00174448 0.00181859 0.00188461 -0.00193223 0.000482152 -0.00187063 -0.00274834 0.000821916 0.00116134 0.00159657 0.00145466 0.00165074 -0.00103481 -0.0013144 -0.000564554 -0.00136983 0.000488536 0.000373219 -0.000610258 0.00115098 -0.000244383 0.00104628 -0.00239415 -0.000155569 -0.00089749 0.00221052 -0.00072059 -0.000927273 -0.000263114 0.000971246 0.00104384 -0.000272032 -0.00167642 0.00145457 0.00121976 0.000760685 -0.00326997 0.00209032 0.000705102 0.000547395 0.000205695 0.000955297 -0.000880455 -0.00431947 -0.00471604 -0.0054395 -0.000750615 0.00195827 0.000585029 -0.0019334 -5.63854e-05 0.00195314 0.00251319 0.000910113 -0.000404671 -0.000379335 -0.000568449 -5.53778e-05 0.000379414 0.00147038 -0.000187956 -0.000856483 0.000911424 -0.00143966 0.00151093 -0.000240882 -0.000425097 0.000776902 -0.000904773 -0.00145357 -0.000776744 -0.00163026 -0.00247562 -0.00203744 0.000610875 0.00180904 0.00191416 -0.00261616 -0.000919781 -0.00102922 -0.00136073 -0.000294767 0.000387716 0.00113617 0.00129838 -0.00059782 0.000173258 -0.00113473 0.00080221 -0.00355523 -0.00379425
internal_weight=2.03651e+06 853450 1.18306e+06 313860 1.0049e+06 539590 282468 702770 422076 267118 178162 469956 232814 117514 302131 154958 349565 82002 159174 117630 147449 130931 109028 101682 135019 16518 297874 104748 56644 69134 149488 54969 30271 78327 189424 185276 177953 172764 60870 183408 59897 22501 39117 72956 43545 120391 97689 90894 66720 59578 75335 94519 88280 42885 32440 51691 27211 18975 42295 17720 98278 55282 50159 24174 112707 108606 10241 53920 74486 89771 24060 18430 50011 110159 31392 111562 74841 36414 29249 21954 12829 73640 14703 49450 43768 7323 47050 16334 6471 49015 5189 10152 52221 24575 65364 50181 69402 71846 27710 12070 17693 47110 28188 42592 38369 6677 18531 29823 24128 22702 50468 47937 13854 49337 46703 32283 22449 14771 114466 88718 21415 42901 28912 67092 23355 20578
internal_count=2036513 853450 1183063 313860 1004901 539590 282468 702770 422076 267118 178162 469956 232814 117514 302131 154958 349565 82002 159174 117630 147449 130931 109028 101682 135019 16518 297874 104748 56644 69134 149488 54969 30271 78327 189424 185276 177953 172764 60870 183408 59897 22501 39117 72956 43545 120391 97689 90894 66720 59578 75335 94519 88280 42885 32440 51691 27211 18975 42295 17720 98278 55282 50159 24174 112707 108606 10241 53920 74486 89771 24060 18430 50011 110159 31392 111562 74841 36414 29249 21954 12829 73640 14703 49450 43768 7323 47050 16334 6471 49015 5189 10152 52221 24575 65364 50181 69402 71846 27710 12070 17693 47110 28188 42592 38369 6677 18531 29823 24128 22702 50468 47937 13854 49337 46703 32283 22449 14771 114466 88718 21415 42901 28912 67092 23355 20578
is_linear=0
shrinkage=0.05


Tree=4
num_leaves=127
num_cat=0
split_feature=276 242 5 39 11 5 39 39 104 17 242 11 265 18 242 39 175 145 11 280 39 11 265 11 11 242 5 18 276 5 10 36 175 280 13 5 231 18 11 265 172 167 15 231 5 10 69 241 296 16 145 69 18 239 299 18 18 2 5 106 82 11 5 48 11 242 5 101 226 253 74 18 242 265 176 43 245 101 108 173 10 11 11 116 54 4 11 175 10 265 276 242 169 268 276 11 39 297 28 296 111 181 109 106 296 149 50 116 274 280 12 89 21 98 13 275 15 73 173 50 4 176 117 42 2 246
split_gain=403.374 202.113 86.1506 76.686 62.5023 61.4407 47.245 40.5352 32.7039 28.1985 26.6729 24.0286 23.7912 21.214 19.1674 19.0218 17.0142 15.7967 15.7864 15.7345 13.8602 17.0872 13.5992 11.9164 11.5507 11.5052 14.5825 11.2189 11.2024 11.1609 9.91267 9.91067 9.89434 9.73708 9.22289 9.25417 9.02613 8.71318 11.4266 8.67291 8.25583 10.0687 8.2298 8.22498 8.20193 8.19417 8.0178 7.91131 7.86427 7.71496 7.54755 7.49384 7.42926 7.27452 7.12015 7.05213 6.96613 6.94233 6.73439 6.57855 6.85333 6.78159 6.48716 6.32049 6.19264 6.0971 6.02572 5.98678 5.86642 5.8421 5.81138 5.78683 5.73478 5.68288 5.66253 5.57953 5.4762 5.31279 7.62033 6.47377 5.24023 5.17941 4.98011 4.88743 4.86258 4.81261 4.7394 4.69094 4.68851 7.06104 6.11696 4.67826 4.6778 4.91159 4.67657 4.66714 4.65773 4.65134 4.6512 6.63046 4.5842 4.56981 4.55025 4.47024 4.45708 4.43903 4.35169 4.64009 4.28149 4.27434 4.25433 4.20152 4.12361 4.09594 4.18189 4.08739 4.07661 4.81164 4.07232 4.03371 4.0049 3.95145 6.39586 5.02952 3.93063 3.91986
threshold=0.79752749204635631 0.14513952285051349 0.47113260626792913 1.0000000180025095e-35 -0.45699147880077357 0.34261579811573034 -0.15780177712440488 -0.26248240470886225 -0.53962087631225575 0.23522385209798816 -0.71172457933425892 -0.15724848210811612 0.14254320412874225 0.1368990242481232 0.058361502364277847 -0.35434597730636591 -0.28126156330108637 -0.99468436837196339 -0.37237311899662012 0.078904021531343474 -0.15780177712440488 -0.29329785704612726 0.80688700079917919 -0.36075827479362482 -0.20296117663383481 0.38283579051494604 3.2657096385955815 0.1368990242481232 1.4895112514495852 1.0423485040664675 -0.038001717999577515 -0.3728791326284408 -1.7160849571228025 0.094998218119144454 -1.9543109536170957 1.2087010741233828 -1.5263389348983762 0.1368990242481232 -0.10315367206931113 0.3287502527236939 2.9184927940368657 -0.46228161454200739 -0.23219718039035794 -1.9789363741874693 -1.7087408304214475 -0.30838626623153681 0.77777621150016796 -0.3144069761037826 -0.025738364085555073 -0.24424044042825696 -0.89249238371849049 1.0627748370170595 0.1368990242481232 -0.38927423954010004 0.089579194784164443 0.1368990242481232 0.1368990242481232 -0.26881381869316096 1.0423485040664675 1.649510443210602 -0.31949931383132929 -0.52339842915534962 1.0423485040664675 0.98985093832016002 -0.33601011335849756 -0.066570855677127824 1.7736196517944338 -0.010742187499999998 1.1341844201087954 0.009348199702799322 -0.29551224410533899 0.26633507013320928 0.058361502364277847 0.094457305967807784 0.075882721692323699 0.2815196961164475 0.027053687721490863 -0.010742187499999998 1.2320645451545718 1.9691581726074221 1.3546327352523806 0.3290074765682221 -0.44893188774585718 -1.6694996356964109 1.2973857522010805 -0.32172264158725733 -0.53772136569023121 0.071929901838302626 -0.038001717999577515 0.094457305967807784 1.2237958908081057 0.38283579051494604 -0.036672890186309808 0.3443464487791062 0.53945037722587597 -0.18104766309261319 -0.46518976986408228 -1.2473985552787779 1.5664547085762026 1.8296105861663821 0.17982137203216556 -0.36739379167556757 0.25134851038455969 -0.084795475006103502 -0.44447162747383112 0.27938523888587957 0.74035805463790905 -0.66857376694679249 0.1795550808310509 1.0269148945808413 -1.0076062083244322 -0.13209901005029676 -0.35079404711723322 0.031021034345030788 -1.5996861457824705 0.036374276503920562 -0.20507086068391797 -0.37251153588294977 0.44733522832393652 0.87587556242942821 -0.36436899006366724 0.076096810400486006 0.077043633908033385 -0.0088423099368810636 -0.070143703371286378 0.029639605432748798
decision_type=2 2 2 2 2 2 2 2 2 2 2 2 2 2 2 2 2 2 2 2 2 2 2 2 2 2 2 2 2 2 2 2 2 2 2 2 2 2 2 2 2 2 2 2 2 2 2 2 2 2 2 2 2 2 2 2 2 2 2 2 2 2 2 2 2 2 2 2 2 2 2 2 2 2 2 2 2 2 2 2 2 2 2 2 2 2 2 2 2 2 2 2 2 2 2 2 2 2 2 2 2 2 2 2 2 2 2 2 2 2 2 2 2 2 2 2 2 2 2 2 2 2 2 2 2 2
left_child=2 5 4 9 7 8 23 14 10 18 57 30 29 28 16 34 54 -8 88 53 21 45 25 65 72 66 33 58 39 50 31 47 -22 98 -7 64 43 38 -34 82 48 -42 108 -9 -33 115 71 104 49 86 -4 -28 62 -13 76 87 118 -2 95 60 -18 63 -11 70 -36 -6 -20 103 -56 116 119 94 -19 -50 -16 -25 101 78 106 -79 -24 113 -5 -84 -30 -52 -38 -26 -3 -90 -91 -48 -69 -94 -14 -17 -32 -71 99 -27 -45 -1 -51 -44 -12 -15 107 -76 -40 -59 -60 -77 -49 114 -55 -10 -23 -118 -21 -62 -31 123 -123 -75 -113 -63
right_child=1 3 12 13 6 15 17 36 20 52 11 19 46 105 74 27 59 24 22 56 32 69 80 75 55 26 51 -29 84 120 96 44 37 -35 35 -37 40 -39 42 -41 41 -43 67 100 -46 -47 91 112 73 102 85 -53 -54 81 68 -57 -58 109 110 -61 61 125 -64 -65 -66 -67 -68 92 -70 97 -72 -73 -74 121 77 111 -78 79 -80 -81 -82 -83 83 -85 -86 -87 -88 -89 89 90 -92 -93 93 -95 -96 -97 -98 -99 -100 -101 -102 -103 -104 -105 -106 -107 -108 -109 -110 -111 -112 124 -114 -115 -116 -117 117 -119 -120 -121 -122 122 -124 -125 -126 -127
leaf_value=0.0017696631823437736 0.001720591022238576 -0.00087835354186657452 -0.0014671351186857737 0.0011051394368647644 0.00057467865608173496 0.00088653313706096252 1.1192206019304065e-05 0.0014258782340774356 0.0018352239445802222 -0.000334431993212139 0.0023699665991549833 -0.00040675806830496814 0.0004911101666520704 0.00098022281696313017 -0.0010419547738780655 8.3136448045214684e-05 -0.00042940751723089047 0.001431220877365586 -0.0021299446321981475 -0.00011497662466649032 0.0030531839751008843 -0.0017164258544145616 -0.0023734759453541057 -0.001051396518706744 0.00068874635935043532 -0.0035991132708033734 -0.0026331990630827111 0.0010513532712790933 -0.0017166337909848232 -0.0032266677709599334 -0.0013553804657679726 0.0020784243910111507 0.0011799880114824485 -0.0020649624209745049 -0.00091787217392902973 -0.0030917685828626917 0.0027463129281022872 0.0020787284800293979 -6.1643204792782849e-05 -0.00013639842998647295 0.0039748917497028713 0.001695213270133484 0.0019450542697731455 0.0033588616874109679 -0.00052945759803345446 -4.7741540255361812e-05 0.0019649455929377046 -0.0011172005514219353 0.00071547198268745102 0.0016044767171487511 -0.00075008723780625513 0.0001171336003348245 0.0011779679325089228 0.00037981684707663458 1.7854866980662777e-05 0.0017741491716154979 0.0017413484771252952 -0.00017551938927517325 -0.00016166167796506862 -0.00082912731924468302 0.0027157202859430713 0.0015203151049524456 -0.0020132524990067362 0.00040182278910582439 -0.0022024963856057326 -0.00028999240080487181 -0.0041630794948227887 0.0018045528236593365 -0.0026878065337911836 0.0013949574936575704 0.0018983322029983711 0.0021748613637491646 0.00073085767844112436 -0.00044430845638631055 0.0012280531730983761 -0.00048819839018555554 0.00021158768608964398 0.00060595241264941885 -0.0024630004877521758 0.003615902343477328 -0.00056121369548480741 -0.0023684986553407488 0.00064336325309477115 -0.0015237900437670504 -0.0036216396520876121 0.00017096312498881839 0.001863490901467587 -3.7653064409540778e-05 -0.0025289309251313331 -0.00059170783433618219 -0.0024665954600036869 0.0003313902049010526 0.00076454881516336897 -0.001462225786441452 -0.00068009576332826391 -0.00094912150950904838 -0.00020975497928247497 -0.00052378291142650608 -0.0028739128836794935 -0.0048143732905514599 0.0062384044107336722 0.00076189931684018898 0.0002810628973981367 0.00057366118480658729 0.00070499390079695168 -0.00030993003078112188 0.0019645499637133946 -0.00044094170084859273 -0.0013901547094014761 0.0019972513443211816 -0.0019481986652528688 0.0016814910465364425 0.00059809618604551168 -0.00010465442179697993 -0.0018412602026063444 0.00067753680891352748 0.0017701682770587673 -0.0012348042075820125 -0.0015495459236000936 0.0049500011687104075 -0.0015317357400061484 0.0038990297027169784 0.0016117739878930368 0.00221045731746617 -0.00053961311004160873 0.0004371847812849969
leaf_weight=16036 15963 10858 18676 2135 45912 2863 52477 3672 11513 12112 9547 10997 14574 17127 10437 18470 3993 110705 38043 18513 4656 16498 7692 43165 63714 28346 6955 8532 18182 4205 16819 3307 48860 8552 17334 14703 25537 10664 28150 30055 8526 11219 10663 3689 34034 31749 10220 4694 33140 31174 29583 3846 4098 2324 10736 10935 4024 12299 4127 2875 10630 28027 10962 5139 20453 36670 4031 2472 2462 3987 33264 2782 39719 4537 5343 34130 29154 11967 3114 2099 8286 23964 2796 37322 4107 27242 37602 34131 28347 11885 6862 7674 4003 6490 20526 26893 18777 15185 9631 18611 2215 37691 8205 13423 6944 10916 2939 18866 7729 2773 17309 4854 13809 5159 24019 22576 2052 3793 6750 2496 20375 3481 25050 2939 3377 11901
leaf_count=16036 15963 10858 18676 2135 45912 2863 52477 3672 11513 12112 9547 10997 14574 17127 10437 18470 3993 110705 38043 18513 4656 16498 7692 43165 63714 28346 6955 8532 18182 4205 16819 3307 48860 8552 17334 14703 25537 10664 28150 30055 8526 11219 10663 3689 34034 31749 10220 4694 33140 31174 29583 3846 4098 2324 10736 10935 4024 12299 4127 2875 10630 28027 10962 5139 20453 36670 4031 2472 2462 3987 33264 2782 39719 4537 5343 34130 29154 11967 3114 2099 8286 23964 2796 37322 4107 27242 37602 34131 28347 11885 6862 7674 4003 6490 20526 26893 18777 15185 9631 18611 2215 37691 8205 13423 6944 10916 2939 18866 7729 2773 17309 4854 13809 5159 24019 22576 2052 3793 6750 2496 20375 3481 25050 2939 3377 11901
internal_value=-5.993e-06 -0.000757489 0.000652635 -0.00173089 0.000834965 -0.000212009 0.000437914 0.00125815 5.00781e-05 -0.00229122 -0.000371478 -0.000579537 -0.000435264 -0.000729751 0.000832019 -0.001173 0.00106477 0.000802299 -0.00250464 -0.00115612 0.000454826 2.93482e-05 -0.00280285 -0.000237676 0.000962461 -0.0029882 -0.0033557 -0.00065589 -0.00108779 -0.000896432 -6.80231e-05 0.000268116 0.00078796 -0.00363784 -0.00187671 -0.00202744 0.00178644 0.000708311 0.0005883 -0.000785683 0.00171148 0.00267974 0.000191884 0.00328451 -0.000298448 0.000530259 0.000392229 0.00087267 0.00160009 0.00187803 -0.000595146 -0.00165395 -0.000783637 -0.00158159 0.00059157 0.000569956 -0.000190547 0.000993975 -0.000873963 0.00152716 0.00159814 0.00168667 -0.00113206 0.00206568 -0.00161324 0.000190728 -0.00232483 0.00071455 -0.000487034 -0.000765032 0.00224998 -1.97914e-05 0.0012463 0.00118799 5.7793e-06 -0.000651332 0.000763331 0.000252486 -0.000120708 0.00105534 -0.00143375 -0.0018145 -0.00124751 -0.00137274 -0.0020678 -0.000308539 0.00222059 0.000435361 -0.00181508 -0.00203103 -0.00127807 0.00126444 -0.000151735 -0.000612736 -0.000193795 -0.000528835 -0.000751082 -0.000124711 -0.0038755 -0.00408086 0.00444005 0.00106272 0.00132874 0.00118084 0.00166897 0.000478026 0.000148044 -7.25539e-05 -0.00034786 0.000224341 -0.00160427 -0.000243659 0.000162908 -0.00139301 -0.00164531 0.00106857 -0.00131445 -0.000179728 -0.000498324 0.00314093 -0.00182181 0.00162285 0.00189096 0.000599502 0.000770266 0.00119749
internal_weight=2.03742e+06 951620 1.0858e+06 341757 929944 609863 479789 450155 479179 219117 234716 203681 155857 122640 249169 130684 194404 311681 191945 95750 244463 107353 133993 168108 259204 118015 75941 75331 94597 100081 107931 72335 137110 65140 55353 52490 200986 132454 121790 72308 191410 19745 72930 9576 37341 65838 55776 34994 171665 102518 75501 10801 27172 66463 96079 108780 29287 31035 66799 98325 95450 91457 23074 51529 37787 82582 42074 37051 13198 41515 46390 37882 150424 69147 54765 85526 82881 44328 30262 14066 15978 55466 42253 40118 22289 56825 63139 97845 57952 47094 18747 17894 12965 10493 35100 45363 35596 19172 56588 46957 5904 53727 39379 24086 16491 28043 27148 24209 35879 15072 21436 42361 18503 31502 26343 34089 22343 5845 25263 13126 24580 36007 28531 7476 8231 39928
internal_count=2037421 951620 1085801 341757 929944 609863 479789 450155 479179 219117 234716 203681 155857 122640 249169 130684 194404 311681 191945 95750 244463 107353 133993 168108 259204 118015 75941 75331 94597 100081 107931 72335 137110 65140 55353 52490 200986 132454 121790 72308 191410 19745 72930 9576 37341 65838 55776 34994 171665 102518 75501 10801 27172 66463 96079 108780 29287 31035 66799 98325 95450 91457 23074 51529 37787 82582 42074 37051 13198 41515 46390 37882 150424 69147 54765 85526 82881 44328 30262 14066 15978 55466 42253 40118 22289 56825 63139 97845 57952 47094 18747 17894 12965 10493 35100 45363 35596 19172 56588 46957 5904 53727 39379 24086 16491 28043 27148 24209 35879 15072 21436 42361 18503 31502 26343 34089 22343 5845 25263 13126 24580 36007 28531 7476 8231 39928
is_linear=0
shrinkage=0.05


Tree=5
num_leaves=127
num_cat=0
split_feature=276 242 18 5 145 39 45 276 70 5 276 5 39 10 5 242 39 265 39 6 11 39 18 11 64 276 15 3 27 11 70 54 14 64 5 265 11 5 173 176 235 224 116 263 18 42 240 102 158 176 39 39 274 235 12 242 57 265 246 265 17 39 117 131 274 15 17 129 226 64 64 49 110 265 39 128 12 117 116 156 10 5 290 40 40 52 19 5 57 5 158 5 17 298 181 106 17 6 129 233 242 167 242 106 18 5 109 112 6 299 57 11 283 231 14 235 176 72 117 15 6 166 146 47 22 186
split_gain=363.662 209.879 76.3048 72.4542 51.4628 47.0506 46.8124 31.8613 29.9789 23.3027 20.0174 21.4631 19.7959 18.9665 18.773 18.1444 16.0448 15.8781 15.5247 14.8462 14.5973 14.4875 14.4075 18.4318 13.7109 13.4367 12.9093 12.8026 11.6099 11.4859 10.3658 10.3429 9.81564 9.69654 11.0889 9.51425 9.23168 8.91898 8.86029 9.03511 13.2964 9.82362 8.5448 8.33004 7.96151 7.91486 7.56913 8.04241 7.37978 7.2758 7.2186 7.20741 7.07383 9.05461 7.03496 6.84874 6.63806 6.54047 6.5298 6.4688 6.45866 6.43351 6.42561 6.38659 6.37982 6.36947 6.19762 6.13589 6.04362 6.01094 5.97458 5.92347 6.63176 5.89573 5.71542 5.65074 6.20499 5.33501 5.32049 5.30554 5.29861 5.25375 5.24498 5.18358 5.43743 5.15673 5.07935 5.07364 5.07216 4.96504 4.8582 4.85295 7.64626 4.81757 4.76766 4.61771 4.58703 4.54923 4.84337 4.50964 4.49608 4.43828 4.42807 5.01517 4.40792 4.99322 4.34857 4.29774 4.21091 4.20681 4.20581 4.17453 4.15101 4.12953 4.12008 4.10256 4.10062 4.0745 4.19497 3.99948 3.97491 4.59998 3.95601 3.93832 3.92908 3.91438
threshold=0.64929473400115978 0.18172222375869754 0.26633507013320928 0.72319149971008312 -0.5475487709045409 1.0000000180025095e-35 -0.66687923669815052 0.3965612947940827 -0.13111438602209088 0.23936481773853305 1.1894988417625429 3.2657096385955815 -0.26248240470886225 -0.26908466219902033 0.42456956207752233 -0.53536069393157948 -0.26248240470886225 0.046530224382877357 -0.085045550018548952 -0.67364212870597828 -0.47279253602027888 -0.24371810257434842 0.1368990242481232 -0.24212113767862317 1.7644330859184267 1.125943183898926 -0.22132831066846845 -0.53084322810173024 0.59430715441703807 -0.39391461014747614 -0.3721932172775268 -2.0366131067275997 -1.3078157305717466 1.7644330859184267 0.91441112756729137 0.094457305967807784 -0.30827885866165156 1.2087010741233828 1.0000000180025095e-35 0.082978948950767531 0.08379059657454492 0.27353169023990637 -1.6694996356964109 0.91937991976737987 0.1368990242481232 -0.033040339127182954 -0.38170497119426722 -3.0009458065032955 0.037475619465112693 0.076096810400486006 -0.38885150849819178 -0.42622607946395868 0.035484252497553832 0.079735245555639281 -0.27543598413467402 0.098989546298980727 -0.207502506673336 1.0417748093605044 0.023695279844105247 0.35933394730091101 0.21354757249355319 -0.18024556338787076 0.076803352683782591 -1.1201574206352232 0.21880725026130679 -0.23219718039035794 0.03064210340380669 0.19161543250083926 -0.56821671128272999 0.81551286578178417 0.30689282715320593 0.93122854828834545 -0.023927840404212471 0.52664741873741161 -0.60408237576484669 -0.30784524977207178 1.1211895346641543 0.084090121090412154 0.2950854897499085 1.0000000180025095e-35 -0.63395628333091725 1.7736196517944338 0.37117597460746771 0.017682173289358619 -1.0000000180025095e-35 0.011132550891488792 0.054855071008205421 3.2657096385955815 -1.1408053040504453 1.2087010741233828 -1.0000000180025095e-35 0.91441112756729137 0.21354757249355319 -1.3844383955001829 -0.31284309923648829 -1.1975967288017271 -0.099224399775266633 1.8296105265617373 -0.33634969592094416 -0.27616125345230097 -0.11026873067021369 0.17219971865415576 -0.14414398372173307 0.93885025382041942 0.26633507013320928 1.2087010741233828 0.87329617142677318 -0.019006998278200623 -1.2458735108375547 0.91150388121604931 -1.6685037016868589 -0.30827885866165156 0.59335145354270946 -0.058909708634018891 -0.92441552877426136 0.078844018280506148 0.076096810400486006 -0.87219640612602223 0.083333469927310957 -0.22132831066846845 -0.076044473797082887 -1.7982664704322813 0.67815345525741588 -0.48133382201194758 -0.31536158919334406 0.035864429548382766
decision_type=2 2 2 2 2 2 2 2 2 2 2 2 2 2 2 2 2 2 2 2 2 2 2 2 2 2 2 2 2 2 2 2 2 2 2 2 2 2 2 2 2 2 2 2 2 2 2 2 2 2 2 2 2 2 2 2 2 2 2 2 2 2 2 2 2 2 2 2 2 2 2 2 2 2 2 2 2 2 2 2 2 2 2 2 2 2 2 2 2 2 2 2 2 2 2 2 2 2 2 2 2 2 2 2 2 2 2 2 2 2 2 2 2 2 2 2 2 2 2 2 2 2 2 2 2 2
left_child=4 3 5 6 9 10 8 31 19 20 17 24 13 27 21 63 32 33 -17 46 51 30 23 54 37 59 42 114 -13 120 58 -6 -5 34 94 55 -15 60 71 41 -41 85 -25 104 81 -30 47 -2 83 82 113 107 -51 -54 -14 111 -20 68 78 88 97 -11 -43 -10 79 -38 -19 96 -26 74 -52 102 -73 119 80 76 -27 -42 100 -44 -21 -18 -29 84 -37 -40 109 91 -7 -34 -86 92 -77 -48 -3 -24 -4 98 -12 -64 -9 -96 103 -28 105 -16 -87 -1 -91 -47 -84 124 -110 -22 -8 -58 -45 118 -55 -31 -23 -122 -39 -69 -33 -65
right_child=1 2 67 16 7 25 12 14 15 61 11 28 22 36 43 18 44 66 56 69 50 29 95 26 57 75 38 49 45 73 -32 35 89 -35 -36 48 65 122 39 40 77 62 64 116 -46 86 93 -49 -50 52 70 -53 53 117 -56 -57 115 -59 -60 -61 -62 -63 99 125 -66 -67 -68 123 -70 -71 -72 72 -74 -75 -76 87 -78 -79 -80 -81 -82 -83 110 -85 90 106 -88 -89 -90 108 -92 -93 -94 -95 101 -97 -98 -99 -100 -101 -102 -103 -104 -105 -106 -107 -108 -109 112 -111 -112 -113 -114 -115 -116 -117 -118 -119 -120 -121 121 -123 -124 -125 -126 -127
leaf_value=0.0010247295112555154 -0.00092242258772663689 -0.0019538528460392394 0.00024468906872827028 -8.4517406653545545e-05 0.0040058988611935886 0.00045344150358588638 0.0020372986755413268 0.0013201904804903972 0.0015892022915593 -0.0010686359860982433 -0.0013426749467951693 -0.0029497484149264425 0.0014576827132893916 -0.00025498306000455083 -0.00019070782462711939 -0.0018507970951996127 -0.00080019131352313607 -0.0015464253209870752 9.5380003480170035e-05 0.00013176591068218591 0.00051806417214961297 0.0019978397056582063 0.004080339219742754 0.0019368984873880297 -0.0032234731695995758 -0.0011781608088817451 0.0015427490096088191 0.0031457760924571997 0.0027181291753653842 0.00041901137340085814 -0.00043015537612125972 -0.00048413842010987983 -0.0018524891208701886 -0.0037929165364473157 -0.0029736589582196934 -3.8057549792447258e-05 -0.0020330491570736374 -0.0040498180757008468 -0.0031827509480385945 0.0046568854480253359 -0.0015560739612932063 0.0029809486575794733 -0.00039120816470344943 -0.00067234054385917265 0.00081564318047322643 -0.0014286255620012036 0.0014561761017212265 0.002491588246518526 -0.00044949553081941452 0.00046211756666576049 0.00054730470216777084 0.0012671718389020553 -0.0020193100786438812 0.0019847867378016259 0.0006103359863615849 0.00024272930228215592 -0.0027571295490877784 -0.0011794816132519085 0.00028824138111950472 0.00028536240580222938 -0.00062940511260710862 -6.2381557042980222e-05 -0.0020460845741426641 0.00035695656636567692 -0.001288728408265878 -0.0004110579954653042 -0.00036656157000457826 0.0013803957604922861 -0.0047862302743009368 -0.0013644978841674948 -0.00049631097809366392 0.0047043257731008148 0.0010360957860026658 0.001679177781354917 6.3635944814944146e-05 -0.0014072521639562105 -0.0032704033465676963 0.0018348350590131112 0.0018316275079997689 0.00052417640988816508 -0.0012200989431569113 -0.0023128983900221598 -0.0012716335477275065 4.8907515207964498e-05 9.6562681520591929e-05 9.8304715507944424e-05 -0.0023057887709290103 0.00057334199298363423 -0.0010760722686703301 -0.0010403385267757888 0.0023121140653097039 -0.0023587382324186858 0.0010360771695396172 0.00013774374564995718 -0.0014389917985491779 0.0016172398190143556 0.0020660974286618897 -0.0032835769532967417 -0.002565801559863916 0.0010241396940722199 0.00032177093081028798 0.00030452388735921693 0.00029259469408101128 -0.00089097718625135651 0.0017420021345737242 -0.0018120710380585766 -0.0026575898065965657 -7.4503818390367438e-05 -0.0035740601761504523 0.0011904735497127745 0.0011277051730772571 0.00037303721807429918 -0.001196837213577215 -0.00097440461547511998 0.00082746471081643195 -0.00085318234360897609 0.0015779019891724211 -0.00073572417398453825 -0.00054309127756782592 0.0011915811040706097 0.0036123313935233618 0.0011729662642225574 -0.002413327408073678 -0.00025483530095901755 0.0015929651677291778 -0.00087400239392016398
leaf_weight=15231 2148 23228 5487 5326 4440 6573 9677 21993 5391 33587 12138 5296 52102 48731 41994 60373 34934 23262 19232 11021 6040 47077 2107 4490 10931 6267 23269 2370 2020 48489 21534 2349 21550 8367 18727 2739 16129 12145 3713 2193 2623 2186 53034 2499 6634 2611 8348 8750 3034 16879 65442 62284 10221 3597 46233 14763 3625 2062 41525 21187 5511 30137 2077 12066 13753 9689 21342 4637 14288 12975 17349 2283 2677 18715 62090 19431 8159 2078 17678 22563 21172 6868 2443 3063 2567 4209 3322 3661 30895 2459 68579 9248 3833 40731 10526 19611 9342 11933 24314 2817 23140 5587 17687 2328 2595 5353 2168 21363 14002 3711 7228 8711 2115 19913 25800 12886 10652 11105 3017 25595 2044 35256 5315 17864 73598 13894
leaf_count=15231 2148 23228 5487 5326 4440 6573 9677 21993 5391 33587 12138 5296 52102 48731 41994 60373 34934 23262 19232 11021 6040 47077 2107 4490 10931 6267 23269 2370 2020 48489 21534 2349 21550 8367 18727 2739 16129 12145 3713 2193 2623 2186 53034 2499 6634 2611 8348 8750 3034 16879 65442 62284 10221 3597 46233 14763 3625 2062 41525 21187 5511 30137 2077 12066 13753 9689 21342 4637 14288 12975 17349 2283 2677 18715 62090 19431 8159 2078 17678 22563 21172 6868 2443 3063 2567 4209 3322 3661 30895 2459 68579 9248 3833 40731 10526 19611 9342 11933 24314 2817 23140 5587 17687 2328 2595 5353 2168 21363 14002 3711 7228 8711 2115 19913 25800 12886 10652 11105 3017 25595 2044 35256 5315 17864 73598 13894
internal_value=-5.60146e-06 -0.000555009 -0.00154191 -0.000117392 0.000807074 -0.00178025 4.69874e-05 0.00108507 -0.000443536 0.000243603 -0.00219112 -0.00265168 0.000366039 -6.67656e-05 0.000815404 -0.00102116 -0.00142661 -0.00171164 -0.00136186 -3.2621e-06 0.000500303 0.000978765 0.000618411 0.000516748 -0.00293419 -0.000927922 0.00019563 0.000412179 -0.00100856 0.00127015 0.000568597 0.00162214 -0.00210135 -0.00220155 -0.00197219 0.00156312 -0.000659988 -0.00256962 0.000697708 -8.59713e-05 0.00144288 -0.000699877 -0.000191247 3.07505e-05 -0.000793406 -0.000126989 0.000626726 0.00181866 0.00196909 -5.2877e-05 0.000100525 0.000939965 -0.000346042 -0.000834262 0.00105931 0.00123651 -0.000535974 -0.00388764 0.000774732 -0.000412901 -0.00225136 -0.000592756 0.000727806 2.33513e-05 -0.00029821 -0.00142439 -0.000981908 0.00060261 -0.00410902 -0.000355544 0.00032861 0.0010886 0.00272512 0.000886261 -0.000216682 -0.00152492 -0.00236163 -5.71068e-05 0.00109635 -0.000117995 -0.00075731 -0.00104878 0.00103828 0.00206446 0.00214802 -0.00170163 -0.000723138 -0.00119118 -0.000807745 -0.00236904 0.00223218 -0.00138989 -0.00100466 0.000362025 -0.00149542 0.00185638 0.00139221 -0.00243608 -0.00215857 -0.000279007 0.000808312 -0.000834466 0.000901007 0.00132138 -0.000264068 -0.000374052 -0.000838891 0.00038303 -0.00296815 0.000108725 0.000521537 0.00140981 -0.0032622 -0.000627058 0.00115752 -0.00127134 0.00115028 -0.000150606 0.000831778 0.000685936 0.00169235 0.00130673 -0.00355182 8.2199e-05 0.00152872 -0.000301871
internal_weight=2.03622e+06 1.2149e+06 373220 841677 821328 335890 747789 549982 294702 271346 226636 115597 453087 166886 366139 127467 93888 111039 96116 167235 207622 303046 286201 264483 98637 109254 166148 92337 16960 177176 125870 183843 45452 66435 58068 179403 74549 71356 72308 24064 6894 17170 93840 63093 48436 11664 59977 10898 79982 56860 108744 98878 44819 27940 98335 99421 35743 27281 104336 58655 53896 63724 7080 31351 89350 25818 44604 37330 25219 107258 82791 48244 4960 92799 94283 50599 14426 4701 62811 75597 32193 41802 12041 76948 73885 10090 9644 36173 37468 40126 71146 32512 23264 49079 39341 21718 14829 48385 36452 4894 45133 16113 43284 25597 49942 47347 6377 36594 18576 6322 9671 84658 16117 25953 35477 16511 13151 17719 6614 74084 84377 37300 17460 22501 75947 25960
internal_count=2036225 1214897 373220 841677 821328 335890 747789 549982 294702 271346 226636 115597 453087 166886 366139 127467 93888 111039 96116 167235 207622 303046 286201 264483 98637 109254 166148 92337 16960 177176 125870 183843 45452 66435 58068 179403 74549 71356 72308 24064 6894 17170 93840 63093 48436 11664 59977 10898 79982 56860 108744 98878 44819 27940 98335 99421 35743 27281 104336 58655 53896 63724 7080 31351 89350 25818 44604 37330 25219 107258 82791 48244 4960 92799 94283 50599 14426 4701 62811 75597 32193 41802 12041 76948 73885 10090 9644 36173 37468 40126 71146 32512 23264 49079 39341 21718 14829 48385 36452 4894 45133 16113 43284 25597 49942 47347 6377 36594 18576 6322 9671 84658 16117 25953 35477 16511 13151 17719 6614 74084 84377 37300 17460 22501 75947 25960
is_linear=0
shrinkage=0.05


Tree=6
num_leaves=127
num_cat=0
split_feature=276 12 98 104 276 18 11 145 280 276 242 276 242 265 6 242 98 265 87 11 10 128 11 98 242 10 18 11 276 266 98 55 15 233 64 11 216 158 188 98 248 15 87 265 129 87 12 87 278 242 124 64 90 265 174 277 43 240 265 277 242 115 18 87 72 36 265 148 156 69 175 266 53 282 277 157 102 111 52 115 170 280 265 71 10 280 57 70 102 280 56 87 16 240 278 246 227 172 263 240 7 253 131 244 10 123 54 32 10 114 81 172 41 157 240 242 58 233 89 265 12 70 242 111 227 58
split_gain=328.381 184.734 73.8035 47.4423 45.0871 37.1226 33.7881 27.9407 23.1834 22.8255 20.5486 17.8544 17.8409 17.3403 13.9275 13.5756 12.2658 11.8895 10.9279 10.5621 10.5533 10.5155 10.2207 10.1677 10.1476 10.1441 10.1255 10.0618 9.05654 8.69351 8.39697 7.96585 9.74193 9.34125 7.95722 7.92303 14.0021 7.70941 7.69268 8.30834 7.62083 7.59444 7.54574 7.47754 7.21565 7.20457 7.19446 7.07051 7.038 6.84093 6.7169 6.67398 6.59225 6.28567 6.16533 6.09106 6.05911 7.76405 5.99971 5.82541 5.79008 6.55319 5.55423 5.54825 5.3926 5.37311 5.26869 5.21439 5.13857 5.12742 5.0879 4.99722 4.95281 4.89745 4.67896 4.56625 4.51472 4.46078 5.73637 5.16427 4.67383 4.43105 4.41883 4.41226 4.37442 4.34551 4.33216 4.2713 4.26315 4.46972 4.26295 4.25949 4.40874 4.25945 4.19746 4.67275 4.09219 4.07275 4.31791 4.06502 4.16008 4.0409 4.03141 4.02181 6.00673 5.95186 3.98311 3.9636 3.96103 3.95301 4.14406 3.94106 3.88435 3.86494 3.82313 3.82038 3.81865 3.79478 3.91138 3.89442 4.29646 3.78794 3.78379 3.68396 3.67223 3.61698
threshold=0.64929473400115978 0.22828621417284015 -0.26227335631847376 -0.2279536426067352 0.3965612947940827 0.26633507013320928 -0.20296117663383481 -0.34951443970203394 0.078904021531343474 1.2237958908081057 -0.88862287998199452 1.1577069759368899 -0.3671146929264068 0.023072560317814354 0.077866762876510634 -0.14414398372173307 -0.24325454980134961 0.80688700079917919 0.89204782247543346 -0.48032611608505243 -0.30838626623153681 0.5017685890197755 0.8294113576412202 -0.60445010662078846 0.010760438162833454 -0.38514395058155054 0.1368990242481232 -0.38349728286266321 1.551031291484833 0.39169706404209143 -0.029687249101698395 0.05204195715487004 -0.2141570374369621 -1.0058679580688474 1.2181516289711001 -0.26026521623134607 -0.058910103514790528 0.037475619465112693 -0.15495127439498899 -0.46464441716670984 0.093843989074230208 -0.22718740254640576 -0.72406113147735585 0.39103677868843084 0.19161543250083926 -0.77342686057090748 -0.84463331103324879 -1.2862861156463621 0.34123714268207556 0.010760438162833454 -0.3541662842035293 1.7644330859184267 0.34091712534427648 0.2722324430942536 -0.96458691358566273 0.40515826642513281 -2.9922186136245723 -0.34936997294425959 -0.35253325104713434 1.1110877394676211 -0.22339120507240293 -1.2871595621109007 0.26633507013320928 -1.0352432727813718 -1.3866946101188657 -0.15939177572727201 0.56522867083549511 1.9634867310523989 -0.27078846096992487 -0.63411572575569142 -1.5693399906158445 2.8274989128112797 -1.1160326004028318 1.3267314434051516 1.1110877394676211 -0.24370890110731122 0.15271588414907458 0.1053779572248459 0.16935025900602343 0.83589524030685436 0.11878827214241029 0.073306798934936537 -0.38086493313312525 -0.078094556927680955 -0.46549947559833521 0.078904021531343474 0.2947432547807694 -0.2418054863810539 0.025539275258779529 0.062082057818770416 0.20891074836254123 1.8363211750984194 -0.26978296041488642 -0.37869134545326227 0.12814739346504214 0.071211457252502455 -2.0213401317596431 2.985485434532166 -0.51395249366760243 -0.38515023887157435 -1.3844383955001829 0.0070343043189495811 -1.0239496231079099 0.20755951106548312 1.8270930051803591 1.2274613976478579 -1.0000000180025095e-35 0.013235035352408888 -0.34735187888145441 -0.40823252499103541 -0.29898199439048762 2.985485434532166 0.0054322977084666499 0.20732551813125613 -0.39826498925685877 -0.077378146350383745 0.083352837711572661 -1.581713795661926 -0.8698265254497527 0.49043014645576483 0.13449138402938846 -0.3721932172775268 0.18172222375869754 -0.014169177040457724 1.2549485564231875 0.075900830328464522
decision_type=2 2 2 2 2 2 2 2 2 2 2 2 2 2 2 2 2 2 2 2 2 2 2 2 2 2 2 2 2 2 2 2 2 2 2 2 2 2 2 2 2 2 2 2 2 2 2 2 2 2 2 2 2 2 2 2 2 2 2 2 2 2 2 2 2 2 2 2 2 2 2 2 2 2 2 2 2 2 2 2 2 2 2 2 2 2 2 2 2 2 2 2 2 2 2 2 2 2 2 2 2 2 2 2 2 2 2 2 2 2 2 2 2 2 2 2 2 2 2 2 2 2 2 2 2 2
left_child=4 3 11 6 13 9 12 14 10 18 76 21 56 24 38 35 27 20 34 125 88 29 30 25 45 -14 31 49 47 51 46 32 -10 -33 69 75 101 55 39 96 50 124 -11 63 -7 -1 99 -17 70 94 67 81 102 73 -19 72 -2 65 -21 115 61 -34 68 -16 -59 -58 -20 -22 -49 108 -32 91 -15 87 -48 84 -8 79 90 80 123 83 -72 -3 -5 122 -51 -44 112 -90 -79 92 -55 -76 95 -9 -6 98 -26 -12 -101 -37 -43 105 -105 121 -63 -71 -4 -74 -111 -46 -13 -40 -61 -25 -31 118 -60 120 -119 -52 -65 -35 -38 -18
right_child=1 2 5 15 7 44 8 16 26 42 22 17 23 37 43 28 19 54 66 58 40 -23 -24 59 97 -27 -28 -29 -30 116 48 33 60 77 -36 36 41 -39 113 -41 -42 52 53 -45 111 -47 74 62 -50 86 103 -53 -54 71 -56 -57 57 64 117 114 -62 106 -64 85 -66 -67 -68 -69 -70 107 82 -73 109 -75 93 -77 -78 78 -80 -81 -82 -83 -84 -85 -86 -87 -88 -89 89 -91 -92 -93 -94 -95 -96 -97 -98 -99 -100 100 -102 -103 -104 104 -106 -107 -108 -109 -110 110 -112 -113 -114 -115 -116 -117 -118 119 -120 -121 -122 -123 -124 -125 -126 -127
leaf_value=0.00061726449118890679 -0.00094842397399189256 -0.0030014511562370116 -0.001001719921862703 0.0011343345065168643 0.0020937889173659988 0.001649480332570505 0.0016011212910656541 0.0014279940718784634 -0.00092788031039312501 -0.0031041718559816052 0.00061281592304001634 -0.0016007879753479485 -0.00010213733882864003 0.0043344225828278451 -0.0015178768648301279 -0.0010247186928935244 0.00079738784380167262 -0.0031102223622964205 -0.00031933858386247157 0.00020801041321313725 -0.0032209859060924467 -0.00050524215818489599 -0.0022131640538406022 0.00060911597583066662 -0.00066388320104204205 -0.0015353051473548393 0.0012313006930254752 -0.00048833302009231559 -0.0016811113834853755 -0.00021391756570941019 0.0023332127488742689 0.00075419638518500721 0.0036447521289668713 -0.00075081288286444519 -0.0019386861954669113 -0.00118269895564596 2.897161911531284e-05 -0.00034356956169367118 -0.00081348322583448039 0.00086582439754253867 -0.001063209488460291 0.0031955637840060539 -0.0011911375536986805 0.00071754559909267205 0.00042138407061437634 0.001516065141768781 -0.0011557062102943709 -0.00038286054285936949 -0.002278275227769177 -0.00021323411416018917 -0.0016749533217641022 -0.0034841650825790278 -0.00022159549361239293 -1.4867085376173582e-05 -0.00040466118973109266 0.0014601615882036542 0.002504505336167002 0.0020577235730484043 -0.00123098111666983 0.00096785729996090033 -0.00022257504791298746 -0.00097819295202470073 0.0016325986018891122 -0.00025533019625600722 0.00026605577734625509 0.00079483558562906697 0.00090266995059420864 -0.0048249125149825902 0.00037727761020955197 -0.00072855173286786462 -0.0015189315938782589 -0.0034491888921666758 0.0010016713882480886 -9.1976165330055054e-05 -0.00099608079179970164 0.0014474146375174346 -0.00031111847122708007 -0.0049231023370710954 -0.00058697821901578667 -0.0032008493018519605 -0.0017901430826676844 -0.00092786204322727734 0.00012289066350864498 -0.0018193363184581637 0.0001639758155428454 0.00034332502418000057 0.0009263747398262686 -0.0027022656614578929 -0.0033376462789076709 -0.00045732390045386499 -0.0018949512646149035 0.00051556548528920243 -0.0014990038272087213 -0.0024134461113162757 0.00046180076802227398 -0.0004155175804455908 -0.0001850391640935093 0.0016652272434088647 0.00048280838939180086 0.00027725496156833461 -0.0013396867003817921 4.4021146662479156e-05 0.0013627204419135246 -0.0029922220911505239 -0.00050680401693849089 -0.0040130882936358142 0.0012037681879728951 0.00026073720368752885 -0.0030232843459470637 0.00091659959912764044 0.0024145510214882439 -0.0016748562331700028 0.0011795946119043804 0.00023175540997296803 -0.00063528705885211524 -0.00012384709664608223 -0.0024310590256936848 0.0011727442371034639 0.00080946685743763468 0.0015701796385940384 0.00035420626547280718 -0.0028927016975532206 -0.0012341399755167776 0.0021853127565464527 0.0014183898510131206 0.0018796771405129014
